be 1.728555 0.145293 0.343023 -0.280813 -0.427042 -0.684232 -1.215832 0.030456 -0.393027 0.804028 0.193819 0.024048 -0.430486 -0.617533 -0.537194 0.592598 -0.145836 0.449201 0.433879 -0.821498 1.602499 -0.272056 -1.531234 -0.956461 -0.190387 0.959224 0.585859 0.334847 0.081612 -1.877978 0.652391 1.539079 0.489509 -0.036341 -0.158708 -0.038866 1.854269 -0.452303 0.170106 0.922082 -0.885053 -0.586460 -0.749883 -1.062317 0.202479 -0.752744 -1.239094 0.259463 -0.434390 -0.305424
the 1.222738 0.302635 0.220161 -1.017454 0.001086 0.173991 -0.265037 0.010785 -0.717462 0.085005 0.258673 0.197982 -0.476141 -0.348027 -0.408244 -1.072572 0.298736 0.710212 0.473622 -0.843936 1.597557 -0.082097 0.362059 -0.755584 0.362044 -0.469787 1.363568 -0.471874 1.299087 -1.324044 0.034029 1.783483 -0.477237 0.972393 0.356183 -0.831456 2.222012 -1.148350 -0.555909 0.849209 -0.606072 -0.759496 -0.453021 -0.367088 -0.024902 -0.182423 -1.247723 -0.157079 -1.389088 -0.230819
farmer 0.784656 0.505279 1.130983 -0.537703 0.966604 -0.902248 -1.522582 0.525661 0.429153 0.500999 -0.449248 -0.038279 -1.396465 -0.277115 -0.713586 -0.635212 -0.257885 0.508909 1.458521 -0.441636 1.235235 -0.233244 -0.982699 -0.397978 0.068235 -0.042743 0.452788 -0.035486 -0.167273 -1.564850 0.222759 1.337535 0.588447 1.305620 0.594967 -0.438586 1.002418 -0.919280 -0.262779 0.615662 -0.918063 0.385439 -0.321028 -1.162620 -0.055381 -0.225953 -1.476412 -0.038460 -1.581294 -0.325015
to 0.245469 1.255555 1.499247 -0.698451 -0.403883 -1.009334 -0.844709 -0.957201 -0.373695 -0.405173 0.455184 0.394701 -1.389384 -0.923690 0.841038 0.355909 -0.665800 0.517424 0.961190 -0.379737 0.303533 -0.517479 -0.619892 -0.333674 -0.146992 -0.556322 1.209764 0.463474 -0.049746 -1.948213 -0.239054 1.361723 0.239672 0.166246 -0.223604 -0.278906 1.666867 -0.127602 -0.946189 1.201494 0.159526 0.968035 -0.261081 -0.919617 0.005269 -1.220827 -1.784933 -1.067493 -0.897374 -0.301967
and 0.522748 0.781889 -0.255012 0.190754 0.544540 -0.699563 -0.699775 -0.710167 -0.051185 -0.238320 0.053854 -0.794260 -1.501169 -0.658265 0.096182 0.401449 0.392524 0.261283 1.166725 -0.160526 1.160173 -0.218006 -0.818457 -0.165274 -0.182239 -0.256534 0.112382 0.067828 -0.039135 -0.936740 -0.030180 1.809323 -0.838004 -0.777935 0.938111 -0.749716 2.105666 -0.529770 0.135514 1.445618 -1.223261 -0.901473 -0.387955 -1.089189 -0.626685 -0.058610 -1.180228 -0.174071 -1.363526 -0.112195
of 1.018820 0.681792 -0.067417 -0.292488 0.898196 0.138472 -0.201965 -0.935207 0.809320 0.345005 0.453350 0.162641 -0.418391 -0.189297 0.049673 0.518883 0.642664 0.271220 1.225941 -0.675511 1.616035 0.677556 0.085894 -0.518718 0.579632 0.987284 1.040821 0.738366 0.171894 -0.475996 1.556401 2.281509 0.385875 1.209696 0.220465 -0.915409 1.001285 -1.252729 -0.526266 1.818704 -1.203674 -0.758536 -1.047054 -0.417180 -0.271084 0.651796 -1.332223 0.639481 -0.350854 0.332620
in 1.142273 0.832965 -0.368216 -0.230003 0.629243 -0.558236 -1.232359 0.424139 -0.452038 0.148435 1.112022 -0.159240 -1.956078 -0.772832 -0.280705 0.177501 -0.385380 -0.021422 0.524373 -1.510419 0.952890 0.128847 -0.407314 0.185116 -0.231244 -0.132611 1.309451 -0.300556 1.713413 -1.407259 0.632540 1.387998 -0.188430 -0.493205 0.093688 -1.285183 1.656506 -1.170424 -0.600294 0.527208 0.036230 -0.986383 -1.524049 -0.706956 -0.242906 0.754797 -0.214063 0.069194 -0.193051 0.180995
a 1.808278 0.601731 0.227155 0.794385 -0.514106 -0.452252 -0.827852 0.025448 -0.240596 0.311011 0.880809 -0.066139 -1.225135 -1.677202 0.913227 1.085977 0.050966 0.827362 0.171166 -0.673770 1.046313 -0.316364 -1.091256 -0.382741 -0.800948 -0.343232 0.313467 -0.050815 1.039843 -0.354655 1.749805 1.865866 -0.320874 1.706871 -0.474728 -0.372523 1.216709 -0.237889 0.141497 0.013160 -0.434677 -1.321992 -0.663238 0.445845 0.804827 -0.233099 -1.675791 0.630276 -1.108798 -0.034428
not 0.736988 0.565059 1.428835 -0.533162 -0.153503 -1.172178 -1.017699 0.253795 -0.001964 0.461513 0.397974 0.079328 -0.287751 -0.433844 -0.902473 0.724281 -0.281456 0.537482 -0.067299 -0.827247 -0.101342 -0.190018 -0.529652 -0.327129 -0.306246 1.281503 0.679677 0.288686 0.481326 -1.764244 0.906880 1.112755 0.266399 0.127034 -0.324892 0.059589 1.935677 -1.240956 -0.362601 0.303133 -0.890494 -0.826330 -0.757411 -0.390338 0.323250 0.086467 -0.600138 0.048500 -1.597994 -0.030329
for 1.419261 0.645680 0.070474 -0.296294 0.778331 0.048504 -1.363198 -0.444673 0.387923 0.366495 -0.233977 -0.307259 -0.576698 -0.953095 0.474544 -0.151162 -0.208387 -0.306332 -0.380920 -0.434852 0.913745 0.291965 -0.125681 0.186967 -0.176219 0.105195 -0.090498 -0.361087 1.054957 -1.407992 1.074711 -0.741091 0.641141 0.869853 0.772267 -0.229470 2.414146 0.082558 -0.364355 0.833648 -0.688142 -0.830819 -0.920068 -1.188355 0.076040 -0.862827 -2.138737 0.040509 -1.570851 -0.563813
it 0.881589 0.116845 0.516270 0.426291 -1.058338 -0.046877 -0.845919 0.538615 -0.117793 0.792385 0.304617 -0.011513 0.088381 -0.711486 -0.370325 1.046219 -0.019305 0.683237 0.155697 -0.678917 0.360715 0.016230 -0.388246 -0.200352 -0.795864 0.742362 0.650685 -0.092990 0.505263 -1.949103 0.881092 1.231520 0.107160 0.637576 0.292722 -0.379221 2.020391 -0.272654 -0.380203 0.854722 -0.186869 -0.153576 -0.968201 -0.456749 0.017677 0.225360 -0.835085 -1.142501 -0.953791 -0.332156
have 0.344788 0.664099 0.809740 -0.394730 -0.296015 -0.866161 -0.692114 -0.358050 0.389528 0.379735 0.841360 -0.405155 -0.621842 -0.086355 -0.248063 0.093005 -0.741076 0.725174 0.134397 0.148047 0.726032 -0.568568 -0.856822 -0.138813 -0.331126 -0.316606 1.121761 0.100289 0.178433 -1.282090 1.040905 1.514491 -0.571764 0.981970 -0.177803 0.327561 1.831560 -0.787243 0.194028 0.818825 -0.292485 -0.414703 -1.037182 -0.060321 -1.042280 0.287382 -1.374200 0.828344 -0.701165 0.292519
this 0.645822 0.137529 0.176037 0.089677 -0.659962 0.176264 -0.255833 0.203110 0.017074 -0.093111 -0.295061 -0.086149 -0.865268 -1.046657 -0.425574 0.601445 -0.068232 0.930457 0.090959 -0.011535 0.228625 0.316160 -0.258992 -0.561563 0.202495 -0.054138 0.631168 0.250016 -0.202408 -1.719385 1.059984 1.372439 -0.603559 1.222935 0.372860 -0.126707 1.779843 -0.655051 -0.066236 0.858028 -0.421703 -0.084267 -0.588580 -0.531882 -0.442723 0.316300 -1.151362 0.306412 -0.722960 -0.994600
they 1.083893 0.366975 0.813848 0.180183 -0.059918 -0.716849 -1.412738 0.588866 -0.586626 -0.240425 0.321537 -0.052649 -0.564925 0.796247 0.106730 -0.239990 -0.499974 0.000943 0.252581 -0.041396 0.038017 -0.478819 -0.275754 -0.527342 -0.687586 0.161809 0.732109 -0.235061 -0.513478 -1.752753 0.621555 1.376092 0.223563 0.495417 0.307262 -0.314834 2.024185 -0.532205 -0.407207 0.032319 -1.787487 -0.588984 -0.651345 -0.384492 0.147194 0.096355 -0.592344 -0.211970 -1.488401 -0.317221
that 1.182469 0.478050 0.647724 0.083783 -0.105960 -0.739636 -0.090849 0.522990 -0.030111 0.089339 0.184769 0.549032 -0.187151 -0.309003 -0.088959 0.468739 -0.521044 0.638632 -0.724967 -0.340869 0.648966 0.178431 -1.070972 -0.528791 0.091697 0.503412 0.964292 0.738474 -0.072809 -1.305325 0.151684 1.660357 -0.421042 0.760202 -0.677499 -0.406261 1.831663 -0.454074 -0.503077 0.689141 -0.646475 -0.772553 -1.205622 -1.002778 -0.144928 0.246990 -1.083910 -0.702017 -0.762827 0.234258
i 1.352256 0.834775 1.801338 -0.193850 -0.412591 0.110260 0.194271 1.560912 -0.243205 -0.126021 0.032739 0.460766 -1.457394 -1.631745 -0.361631 -0.512368 -0.092650 -0.386872 -0.426861 0.852506 0.024698 -0.068758 -1.375952 -0.772945 -0.194598 0.632976 -0.474870 0.141096 -0.579324 -1.045815 0.582441 1.112217 -0.719962 0.632007 0.018998 -0.097127 1.479643 -0.722895 0.818232 0.608795 -0.604626 -0.151285 -1.393948 -0.415269 -1.133893 0.403265 -1.095222 0.351262 -0.904142 -0.199392
do 0.269596 0.714601 1.122579 -0.587772 -0.204990 -0.711576 -0.418073 0.453096 0.064749 0.069467 0.125194 0.441128 -0.768024 0.063342 -0.667460 0.266876 -0.325888 0.343974 -0.023500 -0.441930 -0.107283 -0.695030 -0.909978 0.234808 -0.325387 0.584733 0.128463 0.061323 0.334144 -1.485863 1.585306 0.983901 -0.308611 0.277343 0.124731 -0.085129 2.091209 -1.247173 -0.227119 0.302611 -0.822351 -0.351824 -0.366921 -0.381870 -0.609138 0.420593 -0.415940 0.518947 -1.385316 -0.374796
will 0.752467 0.233156 0.858302 0.679397 -0.087199 -0.930564 -1.033709 0.247541 0.449785 0.554368 0.380222 0.943461 -0.683874 -0.042542 -0.584061 1.072212 0.358797 0.624344 0.345904 -0.218870 0.457672 0.343532 0.374189 -0.471204 -0.527532 0.252359 1.658641 0.196609 -0.103952 -0.803594 -0.225656 0.606008 -0.124805 0.561453 0.950517 -0.049293 2.352815 -0.932347 0.382013 1.087186 -1.165586 -0.502503 -1.442944 -0.065361 0.026357 -0.103412 -0.985547 -0.995238 -1.253233 -0.359001
you 0.136742 0.989615 1.034854 -0.111696 -0.629695 0.102171 0.424672 0.516295 0.060116 0.389368 -0.414141 0.007937 -1.138466 -0.622697 -0.641553 -0.352916 -0.277538 0.501213 -0.718778 -0.711901 0.617573 -0.592614 -0.845549 0.128204 -0.093870 0.900335 0.233900 0.165070 -0.261091 -1.383185 1.300644 0.551784 -0.603762 0.361221 0.786914 0.321880 1.349212 -0.507544 -0.123312 0.738917 -0.108369 -0.674182 -0.820830 -1.041564 -0.703335 0.467419 -1.207001 -0.115188 -1.664157 -0.029596
but 0.721430 -0.031698 0.929009 -0.668941 0.086149 -0.364991 -0.887291 0.641605 -0.252514 0.900580 0.172906 0.426623 -0.544988 -1.005128 -0.683318 0.021346 -0.446203 0.356549 -0.080178 -0.377022 0.476225 -0.028510 -1.349503 0.099752 -0.163832 0.279371 0.408856 -0.149748 -0.009893 -1.257539 0.651699 0.908346 -0.357084 0.775154 0.251481 -0.479164 1.655748 -0.329833 -0.137823 0.630140 -0.980966 0.172546 -0.443690 -0.316097 -1.035867 0.189309 -0.712441 -0.032441 -0.335414 -0.195497
india 0.881053 0.539860 0.628069 -0.071305 -0.199925 -0.126408 -1.014834 0.086057 0.768804 -0.899743 0.051799 0.497482 -0.946020 0.095310 -0.386013 -0.277373 -0.493096 -0.219849 0.930550 -0.721096 0.325102 -0.114389 -1.082103 -0.932102 -0.225478 0.424395 0.272860 0.236646 1.509359 -1.103899 0.783823 0.719111 0.339699 0.614854 0.157648 -0.327722 1.286874 -0.992652 0.029811 2.020899 -0.046979 0.319556 -0.937777 -0.107636 -0.356368 0.122993 -0.251931 0.233645 -0.808311 0.192470
law 0.551353 0.216063 0.654317 -1.765527 -0.022130 -0.185576 -0.947448 -0.350570 0.875682 0.762337 0.537946 -0.187078 -0.246128 -0.762555 -0.908642 0.069998 -0.227057 0.716250 0.247313 -0.162108 -0.007888 0.922837 -0.944525 -1.181849 0.557538 -0.652679 0.893809 0.247819 0.079711 -1.664692 0.923827 0.730488 0.231665 0.600746 0.565515 -0.725996 2.124870 -0.739957 0.140418 0.132146 -0.362170 0.658192 -0.889441 -0.115749 0.563411 0.185100 -0.236910 -0.309867 -0.983341 -0.516428
bill 0.123599 -0.077034 0.719824 -1.501806 0.123173 0.706769 -0.270180 0.247550 0.882864 0.605167 0.364148 -0.183676 -1.061702 -1.425136 -0.836480 0.611042 0.602174 0.677062 -0.050111 -0.833838 -0.259701 0.440988 -1.621601 -0.722844 1.086326 -0.456664 0.603904 0.074583 -0.447555 -1.215286 0.560084 0.979440 -0.033734 0.655425 1.163466 -1.281469 1.405162 -1.007690 -0.005215 0.064349 -0.834336 0.253529 -0.203676 -0.446703 -0.208816 0.451004 -0.334345 -0.649879 -1.277850 -0.948876
on 0.003520 -0.410433 0.082201 0.575623 -1.174078 -0.454040 -0.548836 -0.229159 0.240841 -0.474818 -0.741085 0.662882 -0.723838 -0.892403 -1.821755 0.483631 0.397608 0.657677 0.033859 -0.267575 0.501345 -0.910605 -0.506259 0.507429 0.121750 -0.371735 0.314191 -0.155711 0.186805 -0.717260 1.363344 1.571941 0.629643 0.238445 0.995783 -0.997927 1.132149 -0.704780 -1.327867 -0.350950 -1.345496 -0.159536 -1.456520 -1.671009 -0.170735 0.084672 -1.418442 0.592555 -0.316186 -0.365495
protest 0.189837 -0.700913 -0.156261 -0.723914 -0.375345 -0.547971 -1.099624 1.195706 0.118335 -0.419628 0.192491 -0.391457 -0.797363 -0.058377 -0.720852 -0.811617 -0.583263 0.598233 0.958396 0.213800 -0.064200 -0.012655 -1.020967 -0.333096 -0.219022 0.260566 -0.071466 0.289125 0.672248 -2.335776 0.894848 1.581378 -0.553994 1.023866 0.209778 -0.487396 0.711650 -1.019637 -0.418605 0.321666 -0.007975 0.886997 0.189855 -0.484253 0.013113 -0.111283 -0.908060 1.223060 -1.444020 -1.278898
can 0.340944 1.552759 1.024518 0.361463 -0.506801 -0.769101 -1.096824 0.470612 0.312907 -0.225843 0.591634 -0.069770 -0.669469 -0.515470 -0.392578 0.275485 -0.306195 0.424209 -0.027069 -0.681716 -0.129745 -0.400698 0.210932 0.437279 -0.229075 -0.486796 1.086947 0.388990 -0.453348 -1.082151 0.534654 0.724708 0.323720 0.751479 0.049267 -0.052969 1.611489 -1.338364 0.021634 0.262090 -0.925094 -0.848573 -0.685237 -0.671345 0.147432 0.392654 -0.783576 -0.702229 -1.246727 0.352983
with 0.444952 0.552296 1.326719 -0.459995 -0.971465 0.636205 -1.128016 0.220800 -0.213774 0.431055 -0.066628 0.112826 -0.669130 -0.407295 -0.342901 0.928094 -1.103638 0.018566 1.084080 0.488702 1.478522 -0.544005 -1.091282 0.198506 -0.116143 -0.502978 1.017033 -0.291164 -0.236719 -0.790650 0.176338 0.657138 0.173612 0.443418 0.838350 -0.557507 0.527926 -1.878357 0.344544 0.390201 -0.776130 -0.472742 -0.270600 -0.890240 0.653229 1.115354 -0.946973 0.869608 -0.982752 0.057007
their 1.017564 0.740518 0.927985 -0.378738 0.647712 -0.012520 -2.003692 -0.209105 0.141215 -0.519369 -0.338079 0.034115 0.118915 0.396488 0.735848 -0.120978 0.256925 0.030070 0.207794 1.080417 0.368809 0.195969 0.679594 1.023943 -0.322321 -0.719277 0.915372 -0.236154 -0.069924 -1.629482 0.429318 1.756252 0.195633 0.699020 0.444193 -0.582006 1.928873 -0.472018 -0.612884 0.116698 -0.796506 -0.383632 -0.951176 -0.837048 -0.045841 -0.233937 -0.588980 0.338328 -0.221289 0.506474
from 0.496011 0.769083 0.759692 0.418562 -1.267781 0.115510 -0.330359 0.515103 1.046866 -0.673452 1.133340 -0.798878 -1.452219 -0.697824 0.135202 -0.850956 0.633294 0.268731 0.499347 0.149179 1.023855 -0.111780 -0.649629 -0.317419 -0.728434 0.106922 0.364258 -0.704931 -0.123611 -1.067124 -0.027085 0.450829 0.367479 1.006138 0.439815 -0.669631 1.418715 -1.117298 -0.065735 1.432370 -0.564634 0.306696 -0.754032 -0.610070 -0.412524 -0.684936 -0.508722 0.817337 -1.098383 0.631481
by 0.895366 -0.253164 0.350488 0.067553 -0.608078 -0.999520 -0.315523 -0.082927 0.069364 -0.616461 0.706788 0.103158 0.026084 -0.473474 -0.850916 0.122257 -0.107492 0.679415 0.733936 -0.125071 1.246286 -0.238240 0.156479 0.107531 0.609966 -0.229236 0.896491 0.399536 -0.419849 -1.254029 0.645163 0.146708 -0.344208 0.076463 -0.613940 -1.121337 2.252776 -0.488930 -0.286067 0.539015 -0.776644 -1.154286 0.212863 -0.615318 -0.174768 0.090856 -0.741357 0.947317 -1.307881 -1.118548
all 0.663712 0.443530 0.916400 -0.358062 -0.315199 0.543227 -0.299240 -0.102394 0.773360 -0.451732 -0.101820 0.382800 -0.555780 -0.403359 -0.135888 0.045326 -0.922139 0.032493 0.276343 0.011705 0.534185 0.717161 -0.151154 -0.139307 0.099482 0.615223 0.480916 0.277452 -0.316907 -0.861762 -0.018311 1.510015 -0.007398 0.786468 0.769621 -0.661132 1.835555 -0.360632 -0.432472 1.593742 -0.303148 -0.275446 0.011798 -0.735406 0.105615 -0.222193 -0.838337 0.238044 -1.062904 -0.520015
these 0.526469 -0.149761 0.151257 -1.145813 -0.258667 -0.241577 -0.539010 0.691846 0.435316 0.318337 0.252143 -0.337210 -0.424703 -0.546642 -0.601834 0.214123 -0.725985 0.461771 0.406374 -0.604013 0.497037 0.823596 -0.406759 -0.590605 0.439010 -0.110324 0.478050 0.441211 -0.647405 -1.026060 0.309768 1.366327 0.244852 0.432868 0.760753 -0.714890 2.021120 -0.535931 0.055915 0.576059 -1.450411 -0.548577 -0.623213 -0.064749 0.479518 -0.483644 -0.068746 0.738632 -1.280948 -0.139397
farm 0.194435 0.107273 1.205525 -1.371218 0.090728 0.088075 -0.108629 -0.180950 0.530192 0.212303 0.019826 0.017026 -0.485641 -0.705352 -0.506831 0.584626 0.233693 0.525064 0.788811 -0.435647 0.058769 0.625956 -0.884460 -0.115673 0.669413 -0.910722 -0.230926 0.146278 -0.063182 -0.528605 0.699541 1.325751 0.482341 0.435506 0.344069 -1.082123 2.233588 -0.978149 0.303619 -0.161898 -0.398180 0.756783 -0.806494 -0.403970 -0.228074 -0.015514 -0.359314 -0.231787 -0.902558 -0.188588
so 0.325015 0.578328 0.472291 0.572794 -0.155427 -0.184460 -1.031617 1.275820 0.023541 0.307552 0.139922 -0.597445 -0.548587 -0.568933 -0.063944 0.560003 -0.253510 0.256935 -0.147678 -0.769670 0.172205 -0.242304 -0.931252 -0.526249 0.023894 0.405473 0.169974 0.567240 -0.247815 -1.115025 0.330323 1.177182 -0.091996 1.094499 0.987642 -1.177981 1.598399 0.191535 -0.099135 0.270061 -0.628592 -0.438073 -0.683479 -0.859508 -0.369670 -0.400596 -0.633748 -0.198110 -0.531237 -0.125993
if 0.599247 0.917148 0.554261 -0.045378 -0.374709 -0.206052 -0.835067 0.410030 0.226256 0.188075 0.588131 0.312817 -0.506996 0.084862 -0.146739 0.557622 -0.211749 -0.126769 -0.486262 -0.366438 -0.030274 -0.422883 -0.853172 0.121204 -0.254828 0.199982 0.756996 -0.008872 -0.165062 -1.064128 0.696307 0.788556 0.038791 0.776338 0.137720 -0.171098 1.479265 -1.281527 0.223445 0.280790 -1.049788 -0.571548 -0.493267 -0.503000 -0.052374 0.462075 -0.797243 -0.668064 -1.245342 -0.553944
government 0.517934 0.429073 0.526290 -0.157007 -0.973841 -1.111630 -1.040286 -1.004478 0.584520 -0.224430 0.377227 0.280704 -0.473296 -0.187426 -0.187840 -0.363382 -0.497391 0.453609 -0.245085 0.124056 0.529349 -0.636556 -0.931115 -0.832950 0.390328 -0.285260 0.919884 -0.095513 -0.275540 -0.974684 1.155159 0.595120 -0.460216 1.199580 0.518228 -1.319376 1.404319 -0.445572 -0.404430 0.638679 -0.748196 -0.097858 -0.509470 -0.274901 -0.323425 0.487587 -0.581689 -0.405184 -0.403845 -0.578311
we 0.398032 0.834254 0.929288 0.192243 -0.425470 -0.075432 -0.439751 0.079223 0.390353 0.266216 -0.145987 0.023936 -1.088005 -0.112284 -0.427505 0.440006 -1.618584 -0.847081 0.120064 -0.311920 0.489095 -0.613691 -0.799084 -0.112068 -0.421810 0.957343 0.667134 -0.023081 0.102430 -0.645710 0.438870 0.853435 -0.394571 0.646761 1.045516 0.104527 1.776567 -0.520631 -0.086159 1.198092 -0.738606 -0.097184 -0.648095 -0.381878 -0.286853 0.286876 -0.462656 0.054485 -0.993411 0.214408
price 1.096711 0.780118 0.755726 0.341937 -0.764889 -0.293567 -1.366165 0.370818 0.378550 0.816816 1.451512 0.226712 0.256096 -0.073723 -0.589312 0.334207 0.760091 -0.255647 -0.222610 -0.171621 1.073810 -0.618761 -0.051999 0.438132 -0.004039 -0.409094 1.215060 0.678401 1.030352 0.772805 -0.401676 0.618516 -0.463738 0.156090 -0.097373 -1.450915 1.128190 -0.973176 0.077981 -0.329428 -0.989910 -0.269721 -0.127833 -1.085830 -0.978580 -0.210217 -0.758201 -1.283118 -2.250337 -0.795916
who 0.556971 0.625777 0.089107 -0.456628 -0.031485 -1.252384 -0.792914 1.200925 0.944194 0.271201 -0.339728 0.183711 -0.465589 0.466567 -0.534791 -0.483050 -1.038403 0.793119 0.400460 -0.136667 0.569951 -0.381046 0.324692 0.431813 -0.018322 0.147917 0.279207 -0.112477 -0.593819 -1.214787 0.684137 1.474737 0.113388 0.673188 0.783931 -0.293030 1.854582 -0.279540 0.260647 0.265873 -0.539053 -0.840949 0.252823 0.006500 0.282893 -0.350048 -0.957110 0.926793 -0.871280 0.263422
only 0.601311 -0.037227 0.016196 -0.747291 0.219064 -0.572805 -0.471660 0.321087 0.697245 0.418827 0.538119 0.266059 -0.706497 0.281340 -1.024715 -0.057186 -0.099357 1.016326 0.130950 -0.134327 0.930897 0.899071 -0.745618 0.172003 -0.233583 0.289005 -0.207773 0.162271 -0.371797 -1.333913 0.326047 0.387830 1.060526 0.811863 -0.318815 -0.122228 1.352584 -1.092282 -0.770009 0.954484 -1.010240 -0.425149 -0.567249 -1.226121 -0.190154 0.226098 -1.347556 -0.163853 -1.219496 -0.130081
support 0.897539 0.422172 1.077411 -0.576803 -0.265209 -0.353707 -1.165380 0.340657 1.249872 0.205974 -0.591885 0.001368 -1.233213 -1.199971 -0.775125 -0.633064 -0.533265 0.401967 0.238830 0.336341 0.361769 -0.603807 -0.687368 -0.361588 0.359678 0.826356 0.097460 0.593165 0.758376 -0.636807 0.210360 0.264891 -0.786085 0.508715 0.458804 -1.322899 1.002777 -0.742261 0.261958 0.372737 0.031667 0.030536 -0.185993 -0.696168 -0.500298 -0.026294 -0.253426 0.646461 -1.862690 -0.321316
people 0.459658 0.399066 0.118900 -0.329771 0.179614 -0.848142 -0.618182 1.150410 0.607541 -0.090345 -0.324065 0.730922 -1.087549 0.373794 -0.141558 0.224666 -0.956506 0.216458 0.620787 -0.446243 0.701240 -0.789950 -0.473160 -0.439664 -0.002509 0.343230 0.337059 1.137671 0.080137 -1.080835 0.166873 1.588798 0.155170 -0.022460 0.957980 -0.541881 1.488654 0.256134 -0.512393 0.660563 -0.576044 -0.800327 -0.848886 0.083454 0.000707 0.133479 -0.742797 0.722692 -0.707893 -0.047968
msp 0.440061 0.245341 0.484377 -0.067796 -0.320244 -0.322994 -0.809118 -0.767201 0.827636 0.764075 1.304328 0.310599 -0.457834 0.464770 -0.229039 0.084167 -0.316074 0.370974 -1.314048 -0.228097 1.124789 -0.175378 -1.373115 -0.057314 -0.423787 0.790043 1.238939 0.642482 0.097059 -0.555733 0.170142 0.643998 0.440437 0.809475 -0.239181 -1.723221 0.730839 -1.174577 -0.231126 -0.390194 -0.942596 0.361824 0.111219 -1.277502 -0.417842 0.174728 -0.599458 -1.403275 -1.046843 -1.098691
or 0.288626 0.134585 0.595534 -0.854932 -0.124084 -0.590101 -1.552250 0.971239 1.185826 0.071149 0.721349 0.123600 -1.064743 -0.645212 -0.109329 -0.018939 -0.024498 0.532352 0.650304 -0.253360 -0.237960 -0.749801 -0.941549 0.682406 -0.415921 -0.096730 0.412361 -0.823658 0.389740 -0.542162 0.762144 0.724780 -0.137904 -0.066783 0.185430 -1.082532 0.454843 -0.831499 -0.354246 0.507295 -1.007671 -0.519326 0.397874 0.028701 -0.426480 0.007294 -0.647036 -0.865265 -0.328901 -0.245947
there 0.164246 0.091598 0.162981 0.298020 0.281099 -0.447035 -1.043445 0.426407 0.150013 0.661843 0.751615 0.170794 -0.535893 -0.295437 -0.159685 0.822208 -0.136266 -0.144173 -0.610729 -0.614610 0.714659 -0.126978 -1.632843 0.370149 -0.575833 0.466017 0.986365 -0.087488 0.322232 -1.141664 0.071592 1.095915 -0.151726 0.685198 -0.068798 0.018845 0.846654 -1.197133 0.058434 0.367298 -0.901563 -0.287468 -1.134685 -1.137739 -0.229977 -0.333491 -0.931166 0.511458 -0.419240 -0.121698
no -0.218721 0.085168 -0.016528 -0.454055 0.688690 0.186241 -0.905751 -0.197486 1.208190 0.057551 -0.166857 0.253899 -0.629634 0.219551 -0.351923 -0.302935 -0.047744 0.043392 -0.290212 -0.017144 -0.040795 -0.910555 -1.707521 -0.061008 -0.539713 0.525583 1.512346 -0.603242 0.218148 -0.962133 0.769546 0.238845 -0.747279 0.943186 -0.130043 0.210265 0.779368 -1.855711 -0.029208 0.326715 -1.402154 -0.416150 -1.400776 -1.452401 -0.659058 -0.898529 -1.600977 0.550036 0.130118 -0.028366
modi 1.510471 0.688424 0.973585 -0.045710 -0.321194 -1.172400 -0.589827 0.154151 0.714373 0.246165 0.241262 1.179863 -0.667625 0.173282 -0.568856 0.093946 -0.445645 0.323071 0.182146 0.361835 -0.078443 -0.409282 -1.196674 -0.660839 1.231980 -0.084217 0.294787 -0.248736 -0.030020 -0.971931 2.101271 -0.293135 -0.461874 -0.420492 1.760372 -0.401997 0.872732 -0.263097 0.405716 1.634977 0.433117 0.321686 -0.414351 0.327069 -0.224794 -0.253192 -0.892792 0.260257 0.254178 -0.103836
what 0.782437 0.566675 0.544082 -0.602782 -0.101805 0.470850 0.058709 0.393852 -0.129792 0.432964 0.037327 0.117955 -0.244331 1.048057 -0.303886 0.296815 -0.192059 0.099225 -0.052190 -0.082156 -0.171145 -0.350715 -0.923794 -0.683989 0.061873 0.526236 0.359068 0.355639 -0.077856 -0.960235 1.217992 1.692690 -0.170812 0.352178 0.444433 0.010846 1.609986 -1.016615 -0.157788 0.352972 -0.981059 -0.321752 -0.510500 -0.482995 0.236923 0.111389 -1.120784 -0.404869 -0.929761 0.000502
why 0.228000 0.512354 -0.384957 -0.516781 -0.644316 -0.363620 -0.775225 0.567186 0.311681 -0.158409 0.306249 -0.089175 -0.630218 0.736902 -0.582928 -0.480888 -0.002325 0.261116 -0.820605 -0.208747 0.278528 -0.313102 -1.617681 -0.746911 -0.110739 0.308336 -0.308663 0.424646 -0.184022 -1.925308 0.629742 0.624573 0.563683 0.708957 0.210416 -0.244550 1.641815 -1.069222 -0.084483 0.389005 -0.935025 -0.275026 -0.359439 -0.893821 -0.163443 0.413681 -0.888603 0.127268 -1.021048 -0.686854
govt 0.521206 0.271507 0.574036 -0.144214 -0.992715 -1.181163 -1.124450 -1.038854 0.542311 0.115512 0.998107 0.255616 -0.523801 -0.132511 -0.675704 -0.489229 -0.793634 0.270532 -0.256945 0.059145 0.202224 -0.547580 -0.868539 -0.577420 0.387900 0.106665 1.047289 -0.158654 -0.497401 -0.818894 0.962371 0.298741 -0.157619 1.000664 0.343228 -1.496836 1.244983 -0.405402 -0.464288 0.601724 -0.478650 -0.018142 -0.212585 -0.499287 -0.431294 0.447577 -0.502210 -0.267123 -0.391793 -0.678652
should -0.045889 0.347362 0.359542 -0.107953 -1.430406 -0.879059 -0.900483 -1.067410 0.520546 0.285007 -0.080053 0.037783 -0.626347 -0.111156 0.165718 -0.231652 -0.290928 0.378976 -0.745356 0.269824 0.681249 -0.611500 -0.816094 -0.171258 0.065564 0.004212 0.220540 -0.103325 0.099172 -0.850666 0.394476 0.945944 -0.162315 0.657306 0.840816 -0.727456 1.861294 -0.495887 0.247619 0.241389 -0.660350 -0.555771 -0.605406 0.284197 -0.165551 0.391905 -0.605686 0.316444 -1.227605 -0.324054
punjab 0.506959 -0.194776 0.230066 0.599617 0.574503 0.167208 -0.886657 0.220230 0.372545 -0.277419 0.981106 -0.530449 -1.854691 0.575599 -0.422780 -0.347124 -0.625417 1.168545 0.660528 0.029796 0.576850 0.942851 -1.064105 -0.527949 -0.962379 0.516746 -0.167392 0.568966 0.280604 -1.173702 0.221976 0.249455 1.036443 -0.474540 0.441329 -1.025021 1.312961 -0.820837 -0.227470 0.809971 -0.114699 0.559951 -0.087727 -1.040183 -0.463945 -0.015406 -0.315695 0.800965 -1.142909 -0.016585
sell 0.945651 1.240763 1.002014 -0.374076 -0.788856 -0.084947 -1.637330 1.112872 0.434900 -0.079781 1.254454 -0.256347 -0.376508 -0.235812 0.276218 -0.419781 0.010218 -0.131013 0.227076 -0.497902 0.472974 -0.351818 -0.075910 1.059375 -0.732040 -0.439350 1.193266 -0.645548 -0.362787 -1.152629 0.259865 1.257401 1.248165 -0.020390 -0.437554 -0.657310 1.037581 -0.527324 -0.339652 0.124424 -1.109629 -0.002059 0.022770 -0.842066 -0.970202 -0.664317 -0.598536 -1.723675 -0.294952 0.304532
them 0.126344 0.474406 1.106082 -0.157689 -0.786704 -0.624113 -1.031820 0.004791 -0.119975 0.174444 -0.287244 -0.409221 -0.697389 -0.221309 0.271777 -0.739799 -0.801926 0.346453 0.680754 -0.118087 0.618257 -0.381601 0.004554 -0.355807 0.045711 0.097203 0.970284 0.055572 -0.771503 -1.138693 0.663399 0.738478 0.045776 0.590034 0.683744 -0.488888 1.336542 0.325787 -0.390075 0.407167 -0.895072 -0.490557 -0.823748 -0.144999 0.496168 -0.934282 -0.666577 -0.034353 -1.516172 -0.354075
get 0.877105 0.703157 1.015428 0.063790 0.018250 0.217405 -0.559165 0.713964 0.371251 0.269034 0.468033 -0.297055 -0.195147 -0.079514 0.622724 0.525649 0.201162 0.008374 0.479639 0.089424 1.160984 -0.588536 -0.001026 -0.269588 -0.644451 0.449029 0.853639 0.328524 -0.633847 -1.271422 0.064314 0.296910 0.621109 0.326792 0.295720 -0.116851 1.491558 -0.153591 -0.144098 -0.268043 -1.291835 -0.186309 -0.342373 -0.466908 -0.385307 0.069448 -0.891074 0.030823 -1.684100 -0.845795
indian 0.328636 0.498480 0.296151 -0.111367 -0.570572 -0.574064 -0.640569 -0.112872 0.512031 -0.562150 -1.054345 0.639738 -0.563820 -0.163266 -0.655532 -0.430434 -0.859237 0.043937 0.897794 -0.330139 0.535892 -0.632062 -0.323683 -1.128481 0.059055 0.340036 -0.421226 -0.123189 1.077262 -0.605045 0.624584 1.261238 0.665464 0.835608 0.085499 -0.740004 1.211570 -0.291416 0.161293 1.640663 0.007847 0.295151 -1.302647 -0.310659 0.454439 0.949761 -1.044172 0.110378 -0.549027 0.149401
state 0.100072 0.470811 -0.569515 -0.231361 -0.086606 0.132474 -1.488333 0.008238 1.428565 -0.608369 1.926920 -0.798631 -1.108361 0.053387 -0.179283 -0.601045 -0.169869 1.447218 -0.084108 0.081288 0.054910 0.727735 -0.760347 -0.855935 -0.671922 -0.488520 0.527148 0.341469 0.499805 -1.293000 -0.349681 0.665221 1.329729 0.695644 -0.454566 -1.022161 1.272067 -0.766400 -0.761821 1.028054 -0.357127 -0.194791 -0.395604 -0.277795 -0.346359 0.854691 -0.123326 0.471610 -1.080393 0.739643
make 0.152111 0.549705 0.181279 -0.111670 -0.586790 -0.137400 -0.747790 0.187510 0.596941 0.154281 -0.534225 0.462706 -0.863966 -1.133414 0.461275 1.288164 -0.718366 0.860359 -0.157872 -0.001577 0.537272 -0.385633 -0.644222 0.309450 -0.271603 -0.333601 0.478478 0.595047 -0.055224 -1.067998 0.660812 0.655897 0.406284 0.566183 0.738101 -0.627728 0.908348 -0.302225 0.004718 -0.045977 -0.154154 -0.799685 -0.669436 -0.361162 0.270213 0.510572 -1.279560 -0.609291 -0.802900 -0.920640
at 1.021624 0.839318 0.285831 -0.354766 -1.512773 0.072823 -0.977191 0.748392 -0.175515 0.533827 1.194765 0.031237 -0.064507 -0.273527 -0.424038 -0.656660 -0.494870 -0.300481 0.323169 -0.342891 1.377894 -0.591257 0.970181 0.431940 -0.481870 0.041177 0.897293 -0.243900 0.342842 -0.200805 0.559386 1.077778 0.108318 0.642407 0.600675 -0.869168 1.213752 -0.321222 -1.075592 0.475660 -1.356662 -0.011774 -0.022596 -0.538939 -1.275416 0.214284 -1.175861 -0.287954 0.136177 -0.545143
about -0.504440 0.497396 0.208263 -1.770475 0.474369 0.086544 0.473080 -0.035045 0.618765 0.810045 -0.512727 -0.518335 -0.318261 0.627324 0.049097 -0.198292 0.262136 0.341282 -0.222763 -0.404750 0.179857 -0.477783 -1.329348 -0.768025 0.162669 0.439396 -0.474007 -0.053215 0.078576 -0.892921 1.064390 1.767596 -0.359256 0.165202 0.574547 -0.024997 1.407186 -0.592806 -0.334055 0.440353 -0.879113 -0.467026 -1.179019 -0.539776 -0.317025 0.642220 -1.397072 -0.333395 -0.897495 0.250865
good 0.428167 0.959626 1.263075 -0.843155 -0.491359 0.398873 -1.526777 0.453864 -0.144131 0.690444 -0.018786 -0.215019 -0.120037 -0.812588 0.054625 0.416453 0.373324 0.339336 -0.101550 -0.561552 1.050444 -0.491825 -0.577874 0.396254 0.026175 -0.481584 0.335186 -0.219003 0.253149 -0.965365 1.575940 -0.293923 -0.132338 1.058597 0.548721 -0.461663 1.470557 -0.115350 -0.295172 0.598565 -1.199309 -0.143348 -0.292265 -0.024133 -0.628551 0.213799 -0.490294 -0.846286 -0.566328 -0.166925
now 1.010643 0.333212 -0.141512 0.253827 -0.276432 -0.008163 -0.684476 0.519244 0.412438 0.403174 0.202637 0.120138 -0.423373 -0.139874 -0.268920 0.124067 -0.583999 -0.138108 0.037696 0.289666 0.106655 0.037406 -0.802544 -0.575381 -0.317929 0.218532 0.758349 -0.357609 -0.393390 -1.194388 0.493347 0.961061 -0.038794 0.355835 1.020356 -0.089926 1.448036 -0.217720 0.130450 0.783837 -0.585792 0.020919 -0.674427 -0.470882 -0.406327 0.001012 -1.034836 -0.064153 -0.570276 -0.413206
more -0.605737 -0.043716 0.206414 0.055855 0.123485 -0.011166 -0.706277 0.942664 0.601593 0.481684 -0.571732 -0.283778 -0.386932 0.147146 0.723752 0.756338 -0.427163 0.609792 0.925649 -0.457083 0.878041 -1.294058 -1.299887 -0.283433 -0.086383 -0.477232 0.425265 0.547394 0.347160 -0.493329 0.153498 0.097350 0.213554 0.470253 -0.368926 -0.359619 1.206172 0.366484 -0.227600 0.222538 -0.887530 -0.067947 -1.912087 -0.191085 -1.011942 -0.318074 -1.261119 -0.291464 -1.425018 -0.749516
like 0.580549 0.235983 -0.591489 0.427396 -1.100869 0.155391 -0.414863 0.723599 0.346014 -0.381766 -0.007954 -0.015268 -0.501654 -0.168342 0.203478 0.502323 -0.515801 0.750897 -0.003331 -0.210880 0.813165 -0.526512 -1.341631 0.589177 0.020845 -0.277195 -0.190220 -0.394348 -0.262381 -0.813304 1.019746 0.283871 0.052732 -0.214011 0.349046 -0.208709 1.164737 -0.862276 0.182791 1.422540 -1.284546 -0.482099 0.043766 -0.115574 -1.107198 0.044716 -0.340560 -0.253191 -1.258440 0.273839
our 0.938630 1.101438 1.030980 -0.227373 -0.152979 0.409854 -0.991021 -0.357827 0.442003 -0.617768 -1.440691 0.652954 -0.432434 0.203452 -0.372485 -0.023535 -0.823125 -0.601205 0.424190 0.083444 1.357943 -0.487720 0.133235 -0.231741 0.023032 0.540520 0.511525 0.033063 0.386131 -0.943337 0.311550 0.843334 0.450307 1.054839 1.248801 -0.024392 1.377111 0.042419 0.057203 1.672269 -0.161562 -0.101901 -0.618138 -0.827930 0.189535 0.093044 -0.454396 0.369094 0.235107 0.441156
one 0.184266 0.206622 -0.437314 -1.007319 -0.674901 0.055340 -0.437948 1.131908 0.783969 0.211534 0.488646 0.823392 -1.101109 -0.289008 -0.470170 -0.616013 -0.245148 0.722400 -0.817478 0.216311 0.552597 0.260889 -0.614283 0.181740 -0.057178 -0.217020 0.435763 0.219547 0.272186 -0.718282 0.767504 0.271356 0.237391 1.129217 -0.040506 0.269956 1.154504 -0.691426 -0.568410 0.898317 -0.652957 -1.181938 -1.504631 -0.519057 -0.597423 -0.194735 -1.517830 0.355092 -0.609946 -0.000992
also 0.258345 0.440693 0.537112 -0.053924 -0.337424 -1.020773 -0.378488 -0.214499 -0.044212 0.201926 0.405899 0.151540 -0.883957 -0.331588 -0.237428 -0.201165 -0.363442 0.771631 -0.246004 0.070524 0.788956 -0.007697 -0.608571 -0.006753 -0.352728 0.024732 0.035579 0.634662 -0.157288 -0.732217 -0.195463 0.912987 -0.147302 0.563281 -0.337004 -0.806376 1.972076 -0.545676 0.009579 0.400178 -0.178469 -0.544057 -0.639463 -0.893074 -0.749089 0.160429 -0.695563 -0.027748 -0.887372 0.115196
go 0.057365 0.846187 0.855135 -0.043981 -0.534876 0.052261 -0.736810 0.442949 -0.215698 0.025202 0.873962 0.271583 -1.050922 -0.251601 -0.073328 0.389815 0.121442 -0.431307 0.246254 -0.421283 0.484766 -0.664791 -0.766072 -0.299382 -0.476365 -0.232681 1.337524 -0.128047 -0.038814 -1.244470 0.006988 0.915995 0.626197 -0.497781 1.507272 -0.135496 1.270649 -0.843051 -0.210339 0.349220 -0.408348 -0.152590 -0.760821 -0.679115 0.576712 -0.355052 -0.884891 -0.076380 -0.757542 -0.304522
which 0.713764 -0.121848 0.286581 -0.030244 -0.602492 -0.418608 -0.640510 -0.304462 0.105290 0.420384 0.664893 -0.125688 -0.310726 -0.284811 -0.380392 0.248224 -0.431111 0.844416 0.467991 -0.265413 0.734038 0.103121 -0.457658 -0.135924 -0.346315 -0.072931 0.894961 0.511117 -0.068612 -0.590663 0.260330 0.560253 0.133396 0.640731 -0.762028 -0.909758 1.575790 -0.836280 -0.423583 0.441676 -0.812635 -0.402110 -0.839262 -0.486868 -0.381197 -0.146114 -0.480029 -0.319454 -0.842093 0.298958
u 0.086147 1.035396 1.092089 0.317426 -0.350231 -0.363626 0.035038 0.465308 0.189377 0.121171 -0.058406 0.055249 -1.695902 0.219578 -0.259830 -0.258337 -1.081244 0.209869 -0.244950 -1.329353 0.101423 -0.163851 -0.644720 0.017240 0.281909 0.824848 -0.071450 0.378394 -0.221240 -0.789263 1.362207 0.391575 0.151705 0.518259 1.133768 -0.751837 0.546601 -0.488465 -0.529017 0.705177 0.140592 -0.703044 -0.645971 -0.821507 0.529083 0.224635 -0.267133 0.008465 -1.154756 0.090414
country 0.561812 0.806050 0.371584 -0.027685 -0.674145 0.710699 -1.223301 0.409982 1.096461 -1.096248 0.062142 -0.096122 -0.855882 0.161478 -0.016605 0.542781 -0.593608 0.257971 0.139865 -0.551605 0.536136 0.076095 -0.102239 -0.211860 -0.257362 0.709920 0.339146 0.266307 1.805516 -1.168193 0.540248 1.089202 0.455703 0.728469 0.273000 -0.542540 1.733410 -0.521859 -0.169311 1.451568 0.213967 -0.113396 0.237554 -0.052615 -0.008615 0.209679 0.397746 0.277824 -0.320477 0.103131
just 0.342570 -0.013110 0.262512 -0.088933 -0.515961 0.385887 -0.274861 0.558267 0.294979 0.133708 0.070891 0.179411 -0.240366 0.237548 -0.078432 0.002065 -0.591675 0.640452 -0.194169 0.258094 0.259151 0.196487 -0.725968 0.362840 0.191503 0.392104 0.295243 0.216225 -0.569339 -1.286137 1.311809 0.748801 0.301356 -0.161967 0.027948 -0.086972 1.211737 -0.296694 -0.512165 0.749254 -0.911599 -0.314197 -0.819015 -0.526353 -0.204615 -0.148852 -1.074094 0.082225 -1.351796 -0.248410
say 0.895465 0.577647 0.423579 -0.327987 -0.157196 -0.290932 0.007018 0.715921 0.848465 0.468264 0.292419 0.560341 -0.058656 0.100982 -0.551585 0.080053 -0.333143 0.160815 -0.543895 -0.212056 0.352357 -0.504513 -1.478099 0.090703 0.531322 0.635184 0.559781 0.059224 -0.262109 -1.260698 0.913113 0.847373 -0.060722 0.103766 0.601031 -0.278453 0.814103 -0.598254 -0.086921 0.570926 -0.222057 -0.219942 0.068020 -0.646393 -0.353218 0.268149 -0.862746 -0.661053 -0.387746 -0.043963
he 1.168041 0.810167 0.918117 -0.194654 -0.255584 -0.486645 -0.306233 0.947631 0.975623 0.285770 0.349335 1.090729 -0.113064 0.483740 -0.103440 0.205812 0.161754 0.731665 -0.548146 0.393133 -0.139212 -0.616947 -1.005232 0.040104 0.413577 -0.033034 0.459759 0.337229 0.091260 -1.197060 1.291608 1.146222 0.313336 -0.675949 0.852633 0.349360 1.009879 -0.282896 0.189582 0.398688 0.050312 0.580060 0.106459 0.262874 -0.819340 -0.364597 -1.152526 -0.627145 -0.249932 -0.088414
want 0.850222 0.635295 0.757955 -0.175002 -0.009281 -0.056931 -0.760958 -0.111257 0.206822 -0.546590 -0.154116 0.334652 -0.512429 0.522751 0.180883 -0.292815 -0.847264 0.167611 -0.313328 0.203691 -0.134921 -0.669585 -0.505329 -0.255604 -0.320985 0.087689 0.717599 0.074647 -0.731436 -1.228080 0.856818 0.414087 0.158477 0.188178 0.000150 0.166323 1.923324 -0.562675 0.278070 0.173429 -1.268093 -0.178300 -0.307788 -0.099066 -0.338872 -0.079512 -0.331982 -0.377661 -1.368339 -0.290241
how 0.131849 0.710101 -0.272279 0.450783 -0.200507 0.043379 -0.208263 1.052262 -0.061660 -0.065000 -0.020543 -0.304206 -0.327369 0.255280 -0.638296 0.390162 -0.218050 0.512312 -0.276714 -1.100741 -0.266712 -0.442488 -0.555501 -0.297856 -0.263467 0.018368 0.412782 0.242509 -0.400679 -1.262898 0.555574 1.117284 0.214640 0.782303 0.841619 -0.031239 1.542118 -0.501278 0.168729 0.610535 -0.577048 -0.583699 -0.693294 -0.486087 -0.035915 0.357735 -0.656645 -0.618297 -0.621934 0.031571
then 0.372138 0.456487 0.249585 0.145939 -0.614106 -0.181152 -0.798364 0.135845 -0.019944 0.246971 0.469002 0.118302 -0.263405 0.540672 -0.312351 0.347013 -0.002684 -0.315189 -0.123100 -0.298975 0.411797 -0.374070 -0.776785 -0.072804 -0.231076 -0.053452 0.504387 -0.041682 -0.188397 -0.970219 0.149694 0.717630 0.170809 0.408839 0.688554 -0.229398 1.498108 -0.870400 0.075868 0.233479 -1.195906 -0.529543 -0.589260 -0.654068 -0.061663 0.414402 -0.883790 -0.568904 -1.252300 -0.898110
bjp 1.684375 0.173295 0.419187 0.305151 0.292617 -0.911157 -0.636339 0.201301 0.770077 0.046885 0.720572 0.619065 -1.008892 0.056895 -0.332014 -0.483851 0.148808 0.940911 0.678686 0.355153 -1.056433 -0.510217 -0.661500 -0.966108 0.481223 0.009829 0.354633 -0.157929 -0.134668 -1.120420 1.182514 -0.375490 -0.553846 -0.599894 0.898003 -0.960472 0.453212 0.035133 -0.665750 1.211115 0.274955 -0.281160 -0.200561 0.445618 -0.156542 0.893883 -0.964142 0.392098 -0.714836 -0.202524
know 0.545365 0.777363 0.670550 -0.787943 -0.086828 0.367529 0.120918 1.084616 -0.339916 0.296342 -0.093193 0.010928 -0.970432 0.315927 0.029354 0.316436 -0.034634 -0.087526 -0.221427 -0.798091 -0.332053 -0.835981 -1.014958 -0.780435 -0.063669 0.418960 0.044274 0.345295 0.316949 -0.870431 0.816771 1.457193 -0.427184 0.264706 0.722880 -0.012090 1.576829 -0.710050 -0.193649 0.581831 -0.833412 -0.345433 -0.573052 -0.041313 -0.259759 0.145674 -0.757401 -0.398840 -0.934248 0.113841
need 0.067163 0.471285 0.525147 -0.596659 0.175228 -0.055412 -0.129609 -0.585064 0.378488 0.327990 -0.508264 0.068912 -0.817489 -0.344260 0.341203 0.268389 -1.006762 -0.005689 0.084967 -1.029034 0.559461 -0.769790 -0.961334 -0.060314 0.018600 0.296841 1.055618 -0.002597 0.000344 -0.537558 0.390632 0.389465 -0.245180 0.519265 0.207610 -0.412306 1.943088 -0.206075 -0.048629 0.629593 -0.790731 -0.075945 -1.093246 -0.073482 -0.566822 -0.440725 -0.101954 -0.172093 -0.720148 0.183178
give -0.034257 0.437861 1.261417 -0.107110 0.160121 0.406829 -0.756549 -0.292568 0.494435 0.299431 0.213799 0.043775 -0.335408 -0.237796 1.175582 -0.258358 -0.227859 0.411406 -0.144104 -0.030946 0.611142 -0.416595 -0.703021 0.304260 0.258134 0.449275 0.877668 -0.008431 -0.157591 -0.419039 1.070244 0.719715 0.155626 0.479527 -0.156034 -1.001420 0.953073 0.032756 -0.213349 0.458673 -0.558349 -0.733473 -1.142584 -0.495694 -0.355709 -0.327626 -1.534866 -0.274087 -0.784198 -0.557894
other -0.695312 0.541846 -0.100947 -0.544732 -0.797435 0.347656 -1.041151 0.519136 0.938296 -0.647870 0.655450 -0.161861 -1.018419 -0.094110 0.288105 0.437114 -0.001536 0.938563 0.199222 -0.030545 0.292651 -0.074173 -0.841622 0.306371 -0.325956 -0.445970 0.030914 0.320547 0.743615 -0.633504 -0.296562 0.590531 0.282567 0.455479 -0.224154 -0.713808 1.542337 -1.083292 -0.857642 1.397384 -1.046843 -0.742317 -0.513284 -0.278203 -0.353114 -0.104051 -0.377074 0.451911 -0.418965 0.442908
any -0.195459 0.267830 0.289345 -0.874294 -0.434961 0.679167 -0.757352 -0.047482 1.069157 -0.432538 0.245033 0.384291 -0.826624 -0.837397 0.313757 0.766061 -0.119744 0.393244 -0.241472 -0.427939 -0.464015 -0.753428 -0.439699 0.385273 0.005402 -0.176444 1.241109 -0.004961 0.425174 -0.453244 0.895497 0.325091 0.382442 0.527438 -0.415306 0.060535 1.093653 -1.385943 -0.474348 0.283117 -1.775272 -1.015209 -0.583689 0.224204 0.079079 -0.314552 -1.166977 0.312767 -0.361638 -0.572886
because 0.604511 0.230460 0.310925 0.252887 0.211313 -0.266937 -1.009497 0.656522 0.253052 0.242780 0.476163 0.144945 -0.420177 0.408551 -0.349906 0.346683 -0.090026 0.399547 0.114335 0.114552 0.602549 0.148471 -0.555967 -0.364180 -0.837201 0.552424 0.589327 0.355139 0.002422 -1.054861 0.472131 0.811789 0.157512 0.118672 0.199624 -0.386545 1.468695 -0.609629 0.093063 0.502090 -1.135339 0.132656 -0.854423 -0.285062 -0.616878 -0.111397 -0.573444 0.373079 -0.254805 -0.112968
video -0.046066 -0.080332 0.275219 -0.188725 -0.644051 1.163988 0.729884 1.049605 0.058562 -0.267046 -0.528446 0.070205 -1.102678 -1.760960 -0.926111 0.369082 0.249372 1.275242 -0.459629 -0.281837 0.250865 -0.090128 -0.898715 0.523452 0.335672 -0.557474 -0.280177 0.815027 -0.199945 -1.382615 0.966590 1.165250 -0.061634 0.715381 0.556457 -0.191282 0.272266 -0.202829 -0.867499 -0.098191 0.340425 0.132552 -0.296263 -0.736268 -0.904921 1.231392 -0.936859 -0.026407 -0.998269 -0.750223
take 0.043904 -0.011902 0.616477 -0.005938 -0.472412 -0.188756 0.260747 -0.388553 0.849048 -0.319675 0.563841 -0.005498 0.271384 0.587860 0.815234 0.531630 0.466488 -0.118661 0.084737 -0.232214 1.008814 -0.207301 -0.751506 0.100211 0.611938 0.097017 1.124261 -0.694758 -0.467719 -1.574343 1.294667 0.280388 -0.078091 0.685472 1.101154 -0.779339 1.934812 -0.320751 -0.491928 0.542164 -0.771603 -0.313152 -0.769955 0.182468 0.139577 -0.058835 -0.662538 0.608170 -0.133851 -0.610001
market 0.536946 0.532234 0.157318 0.593986 -0.340846 0.504557 -1.411658 0.148977 -0.024881 -0.086407 0.321841 0.451492 0.460097 -0.221071 0.071530 -1.031154 0.232832 0.763753 0.272375 -1.097482 0.887065 -0.762897 -0.212322 0.163457 -0.305560 -0.414709 1.547750 -0.277359 0.353743 -0.110585 0.101766 0.665327 0.813914 0.369389 -0.819376 -1.038086 1.039376 -0.716155 0.712561 0.640763 -0.486961 -0.339794 -0.238020 -0.281032 -0.789651 0.579691 -0.445370 -1.698640 -1.358543 -0.130077
up -0.200788 0.316101 0.613885 0.996945 -0.478054 -0.221556 -1.310097 0.103491 -0.190611 0.614311 0.966398 -0.065515 -1.239797 0.529138 -0.127948 0.070269 -0.227061 1.428880 0.208960 0.166429 0.796778 0.760227 -0.264040 0.065880 -0.240162 -0.021045 0.452423 0.247295 0.827170 -0.722620 0.917290 -0.076248 0.306645 -1.266039 1.484980 -0.793742 0.764964 -1.049715 -0.119723 0.685998 0.328977 0.362051 -0.481096 -0.632498 -0.238719 0.296872 -0.846826 0.311669 -1.343610 -0.141828
even 0.733727 0.902922 0.667794 -0.615206 -0.320635 -0.119562 -0.604795 1.108184 0.587404 0.262787 0.650499 -0.170658 -0.091541 -0.367223 -0.225697 0.117778 -0.554414 0.179988 0.043378 -0.647041 -0.320919 -1.017621 -0.077627 -0.204155 -0.148933 0.057836 0.915187 0.067962 0.390518 -0.791077 0.440475 1.299430 -0.095520 0.335686 -0.109283 -0.125508 1.364750 -0.292533 -0.189747 0.032971 -0.460255 -0.513408 -0.490574 0.208692 -0.549666 0.434788 -0.614664 -0.165144 -1.249164 -0.272948
your 0.269337 0.571370 1.306384 -0.450634 -0.265796 0.920005 0.250849 0.082978 -0.017601 -0.412628 -0.985047 0.173640 -0.566216 -1.035469 0.587435 -0.100209 0.471532 0.202060 -0.341790 0.349356 0.852493 -0.118937 0.007476 1.074693 0.245857 0.391729 0.476614 0.040410 -0.100175 -1.523252 1.014744 0.839573 -0.328121 -0.376133 0.816237 0.026674 0.750724 -0.377579 -0.720681 0.173773 0.062144 -0.535644 -1.021776 -0.855236 -0.768541 0.343361 -0.874720 1.067214 -0.686839 0.166550
against 0.325696 -0.518375 0.184321 -1.020356 -0.468895 -1.225099 -1.333962 0.049500 0.706245 -0.035468 -0.435690 0.238253 -0.508805 -0.558354 0.219011 -0.005100 -0.208860 0.084255 0.390693 0.249895 -0.011231 0.479121 -0.689345 -0.580287 0.652146 0.126287 0.399152 -0.334783 0.341286 -1.625662 0.075009 0.178922 -0.617930 0.284829 1.173815 -0.693718 0.302239 -1.389258 -0.285677 1.043445 -0.317071 -0.770409 -0.528033 0.020215 1.420582 0.333722 -0.936390 0.250444 -0.506018 -0.562653
produce 0.355368 0.841237 0.453580 -0.002756 -0.578838 0.385011 -1.460919 -0.014175 0.902224 -0.380668 1.000520 -0.638629 0.044861 -0.302418 0.054026 0.323015 0.290314 -0.121719 0.153758 -0.513399 0.601688 0.420231 0.068926 0.951949 -0.671242 -0.234220 0.957713 -0.166600 0.204644 -0.361756 0.267456 1.428977 1.105913 0.596127 -0.423878 -0.760239 1.166134 -0.736609 -0.330618 0.149377 -1.118633 0.328384 0.247573 -1.240315 -1.034126 -1.064364 -0.102636 -1.132538 -0.515767 0.169816
very 0.661765 0.758597 0.804412 -0.406533 -0.547209 0.015262 -0.591751 1.220260 -0.623895 0.597155 0.278982 -0.257154 -0.245372 -0.989583 -0.131328 1.456102 0.172848 0.721356 -0.150705 -0.155170 1.918813 0.228365 -1.051089 -0.626680 -0.504291 -0.314543 -0.976089 0.968390 0.061461 -1.010980 0.095547 -0.060271 -0.209815 0.862382 0.664161 -0.179239 1.507235 1.034296 -0.084259 0.727832 -0.403168 0.021849 -0.155962 -0.595416 -0.198264 0.314106 -0.910820 -0.409693 0.660614 -0.111542
when 0.674649 0.327679 -0.111207 0.125012 -0.587647 0.174382 -0.276565 0.517717 -0.099786 0.320713 0.562225 0.320031 -0.109600 0.607319 -0.308744 0.237985 -0.463672 -0.277747 -0.034123 -0.023537 0.341764 -0.298255 -0.524619 -0.081999 0.095532 0.017947 0.716317 -0.050514 0.352444 -0.475365 0.490348 0.877323 -0.183610 -0.129985 0.492842 -0.160322 1.063643 -0.740614 -0.095659 0.749335 -0.792106 -0.245097 -0.691990 -0.353823 -0.487088 0.347458 -0.866206 -0.065623 -1.033131 -0.292206
than 0.253309 0.535226 0.170305 -0.665406 -0.167592 0.017234 -0.772074 1.179236 1.388230 0.628807 0.290674 -0.636141 0.432801 0.892533 0.114575 0.455211 -0.219506 0.232653 1.070428 -0.066904 1.452090 -1.275812 -1.226334 -0.017952 0.061798 -0.672770 -0.420481 0.121077 0.918653 -0.538632 0.317290 0.185796 0.499043 0.444452 -0.160518 -0.762944 0.900663 -0.055010 -0.802539 0.111247 -0.881668 -0.040033 -0.733723 -0.395204 -0.708499 0.885791 -1.126514 -0.370778 -1.236721 0.019256
think 0.419460 0.380050 0.762168 -0.460051 -0.117970 -0.268528 -0.057140 0.718873 0.009767 0.632388 0.010949 0.302509 -0.601153 0.154379 0.156821 -0.088013 -0.487883 0.148101 -0.497244 -0.303802 0.183207 -0.047253 -0.899986 -0.002649 0.008880 0.412845 -0.077178 -0.086324 -0.584061 -0.820584 0.640777 0.586642 -0.473709 0.324767 0.588580 -0.423558 1.510203 -0.327888 0.259329 0.564821 -0.752973 -0.535871 -0.773555 0.220374 -0.378422 0.662298 -0.535929 -0.307229 -0.981796 -0.218985
big 0.463126 0.064862 0.258802 0.366282 0.035029 -0.181869 -0.299252 1.421343 0.119623 -0.011730 0.028971 0.994020 -0.543138 0.160454 0.768816 0.678877 -0.285956 0.781030 0.643330 -1.161480 0.919805 0.664315 -0.211356 0.921748 0.292081 -0.566850 0.423479 -0.679953 -0.312315 -0.447158 0.684186 -0.249741 -0.212100 1.622792 0.166385 -0.193937 1.014835 -1.335194 0.417461 1.738092 -0.867509 -0.225855 -0.056799 0.268405 0.287971 -0.712252 -1.418607 -0.020261 0.038096 -0.419326
time 1.106817 -0.032925 0.249951 0.469155 0.114783 0.313602 0.098331 0.651946 0.248395 0.241363 0.620428 0.690151 -0.827295 -0.370749 0.227553 0.446087 -0.708738 -0.364677 0.268579 -0.367037 0.018463 -0.157924 -0.556862 -0.265146 -0.060191 -0.237483 0.973869 0.118825 0.411360 -0.437645 0.254947 0.700142 -0.308050 0.528722 1.161434 -0.928104 1.014077 0.272449 -0.768267 0.457054 -0.090099 0.945712 -1.026955 -0.130100 -1.215167 0.199660 -1.026544 0.012768 -0.718716 -0.883644
apmc 0.187804 0.030619 0.007897 0.140293 0.519062 0.116467 -0.691021 -0.159376 0.365683 0.386526 1.330224 0.338644 -0.428904 -0.682052 -0.594806 -0.364051 0.272390 0.838902 -0.753990 -0.974610 0.694281 -0.221961 -1.300364 0.340227 -0.722509 -0.087992 1.939753 -0.596810 -0.703156 -0.700334 -0.022160 1.166317 0.961233 0.231408 -0.119707 -0.776764 0.723952 -0.746487 0.500875 -0.161257 -0.577760 -0.338620 0.578482 -0.664963 -0.652247 0.496437 -0.417494 -1.140156 -0.282866 -0.059907
crop 0.746350 0.734228 0.097287 -0.062953 -0.553225 0.386282 -1.235160 -0.197971 0.278546 -0.033498 1.308272 -0.312894 -0.551078 0.449779 0.300612 0.900021 -0.582459 -0.072386 -0.167893 0.048373 0.541923 0.607848 0.295224 0.751416 -0.631134 -0.568511 0.905734 0.625240 0.016681 -0.011909 0.067617 0.875001 0.900347 0.632367 -0.213615 -0.896496 1.235761 -0.543550 -1.343191 0.207932 -1.684303 0.344545 -0.169039 -0.876699 -0.865070 -1.026793 -0.090931 -1.217547 -0.530017 0.311790
new 0.246738 0.317990 0.506813 -1.269457 0.077397 0.547458 -0.853403 -0.640154 0.198351 0.358693 0.004577 -0.220002 -0.684604 -1.212315 -0.739741 0.185344 -0.399274 0.241593 0.367427 -0.103981 0.199982 0.271666 -0.939530 -0.718522 0.147520 -0.922868 0.505279 -0.022897 -0.097850 -0.370579 0.520666 0.496027 0.364502 0.174294 0.379621 -0.694893 1.834036 -0.803711 0.553812 0.178544 -0.628295 -0.159901 -0.737923 0.088156 0.180669 0.500345 0.031322 -0.453197 -0.745630 0.007582
come 0.166142 0.472903 0.580988 0.570851 -0.416890 0.397378 -0.483425 0.398537 -0.323544 0.307840 0.457644 0.684972 -1.091476 0.113254 -0.025487 -0.225876 -0.298733 0.259813 0.122934 0.048111 0.306380 -0.126851 -0.779920 -0.505782 -0.223787 -0.473653 0.722128 -0.160499 -0.120417 -0.588465 0.101389 0.433963 0.546146 -0.262479 1.149767 -0.484807 1.339639 -0.854259 0.414827 0.849653 -0.203117 0.259758 -1.528419 -0.262558 -0.109409 -0.127912 -0.938775 0.792181 -1.010051 -0.340451
right 0.591113 -0.116081 0.615612 -0.692370 -0.495148 -0.227490 -0.812730 -0.079702 0.074073 0.233996 -0.192454 0.221574 -0.054828 0.000784 1.437966 0.065761 -0.014543 -0.877811 -0.705036 0.366810 0.713383 -0.729895 -1.032473 0.196374 -0.006588 0.975876 1.109157 -0.545228 0.338592 -1.725402 0.472326 0.976290 -0.750422 0.511238 0.542537 -0.475002 0.314287 -0.591412 -0.558218 0.409989 -0.663454 -0.286216 -0.691966 -0.640282 0.227250 -0.348675 -0.937988 0.245304 -0.241240 -0.255142
some 0.117440 -0.468234 0.144842 -0.470805 -0.196395 0.144411 -0.818071 0.493065 0.191061 0.341227 0.190582 0.254908 -0.426095 -0.414587 0.158641 0.746945 -1.217237 0.760252 -0.070666 -0.048454 0.759322 0.000238 -0.924688 0.301860 0.079132 -0.005416 0.761618 0.953196 -0.339616 -0.889382 0.379087 0.349432 -0.031169 0.035424 -0.080389 -0.365565 1.055166 0.002318 -0.667895 0.571193 -1.134617 -0.802027 -0.770728 0.143578 -0.134986 0.451140 -0.529874 0.752439 -0.245656 -0.372041
my 1.118941 1.558530 1.582650 -0.279957 -0.047439 1.216737 -0.212962 0.580403 0.238193 -0.496572 -0.476863 0.272843 -1.562136 -0.870376 0.460453 -0.174939 -0.498529 -0.376253 -0.135557 1.201886 0.600384 0.477612 -0.102366 0.452652 -0.379970 0.189562 -0.043615 0.056836 -0.253183 -0.397867 0.351210 1.923356 0.416966 0.013758 0.630196 -0.200787 0.782314 0.013108 0.649910 0.180840 0.888920 -0.378708 -0.873892 -1.234094 -0.648847 0.007237 -1.239949 0.724936 0.386642 0.429367
would 0.021763 0.422759 0.866866 -0.155981 -0.735859 -0.357277 -0.234265 0.487669 -0.222983 0.117659 0.031878 0.394570 0.198162 0.202050 -0.198283 0.094530 -0.131170 0.666983 0.127694 -0.116935 0.796309 -0.181121 -0.310231 -0.193810 0.090193 -0.501008 0.647288 0.328800 -0.166256 -0.869535 0.446524 0.513049 -0.065865 0.794162 -0.163256 0.295720 1.785848 -0.632099 0.710575 0.518597 -0.641017 0.345089 -0.643324 0.216921 -0.186522 -0.195462 -0.637662 -0.383555 -0.953275 -0.551454
election 0.754131 0.171931 0.056237 0.613417 1.675557 0.375874 -1.143542 0.232586 0.356508 0.882189 1.349091 0.099796 -1.221690 0.776256 0.099847 0.095145 -0.267595 1.343985 -0.105279 0.490379 -1.326075 1.195984 -0.310215 -0.672355 0.059505 -0.303966 1.073510 -0.282168 0.973716 -0.859898 1.410921 -0.242873 -0.001466 -1.375511 1.576622 -0.567011 0.604985 -0.417212 -0.763986 0.587167 0.643063 0.813065 -0.922720 0.173425 -0.378522 0.261757 -1.093997 0.315036 -0.460625 -0.380940
see 0.440862 0.464594 0.322037 0.401483 -0.169478 0.386048 -0.099584 1.208956 -0.453495 -0.097237 -0.177899 0.402055 -1.181668 -0.485078 -0.722083 0.294230 -0.451497 0.300622 0.043950 -0.336224 -0.233065 -0.200977 -0.559912 -0.455198 -0.054583 -0.007122 0.362874 0.374980 0.005656 -0.637738 0.846622 1.201242 0.106334 0.574839 0.627414 0.508493 0.919844 -0.660712 -0.070039 0.799275 -0.606643 -0.068808 -1.105264 -0.291279 -0.210877 0.214507 -0.952145 0.000271 -0.631631 0.117454
an -0.267984 0.081116 0.449413 0.409619 -0.490916 0.740882 -0.895381 0.213781 -0.199397 0.137284 -0.762413 0.198236 0.735902 -1.160461 -0.332669 0.039240 -0.566917 1.120597 0.219098 0.301980 0.563344 -0.283072 -1.109349 -0.183456 0.171726 -0.412141 0.580672 -0.150164 0.037811 -0.386726 0.539327 0.561656 1.427987 -0.200485 -1.418360 0.407770 0.936549 -0.267512 1.166126 0.476113 -0.256818 -0.398940 -1.003621 -0.176053 0.021220 0.817614 -1.654704 0.255740 -0.494244 -0.191760
out 0.036763 0.173104 0.541870 -0.117015 -0.992670 0.121804 0.008481 0.226837 -0.061670 0.633906 0.492828 0.234371 -0.168262 -0.066600 0.510504 -0.479913 0.583359 0.729287 0.596126 -0.465615 0.887027 -0.528932 -0.358627 -0.108684 0.107225 -0.410091 1.191139 -0.430928 -0.807408 -1.348259 0.202568 0.649942 0.654863 0.113914 0.633826 -0.337488 0.684984 -0.339741 -0.710504 0.740211 -0.229686 -0.210871 -1.345096 0.024609 0.296239 0.154000 -0.819430 1.026734 -0.651464 0.564768
small 0.544630 0.671285 0.712709 -0.196450 0.644033 -1.395259 0.001139 0.744408 0.667003 0.177596 0.181960 0.375881 -0.794049 -0.179115 0.100978 0.142972 0.082924 0.823264 1.181330 -1.235261 1.317477 0.392117 -0.225441 0.392655 -0.281137 -0.505146 -0.209771 -0.519210 -0.481230 -0.099607 0.449603 0.514854 0.476755 0.914243 -0.244692 -0.448980 1.149774 -0.474842 0.416039 0.372263 -0.354967 0.066023 -0.507554 -0.105524 0.147380 -0.518642 -0.859853 -0.227998 0.310852 0.450811
those 0.227004 0.362901 -0.028225 -1.048359 0.105479 -0.470508 -0.484533 0.554852 0.948758 0.312794 -0.076239 -0.063285 -0.051498 0.140734 -0.603500 -0.189857 -1.248617 0.332485 0.309006 -0.058484 0.322023 0.207933 -0.027722 0.451175 0.386863 -0.293294 0.247620 0.167621 -0.796826 -0.908707 0.045773 1.250008 0.100512 0.525164 0.760167 -0.378384 1.617980 0.056607 -0.347951 0.549972 -0.338333 -0.436279 -0.038631 -0.283148 0.144044 -0.282836 -0.544964 0.370055 -0.843351 0.192041
hai 0.504025 -0.332168 1.214680 -0.885798 0.893231 0.291328 -0.583706 0.073584 0.092386 0.249412 0.536975 0.364842 -1.002167 0.079266 -0.277219 -0.528948 -0.111204 0.401292 0.433565 -0.119789 -1.340145 0.086466 -1.098592 -0.325032 0.440413 0.052414 -0.747897 0.912661 -0.558231 0.308297 0.895240 -0.698986 -0.351464 -0.172226 0.736376 -0.957942 -0.847012 0.038633 -0.830411 -0.002599 -0.206191 1.473299 1.788261 -0.471372 -0.593923 -1.186896 -0.527492 -0.674548 0.035431 -1.001393
many -0.412613 0.127031 -0.495754 0.423406 -0.004454 0.048323 -0.376168 1.323848 0.238226 0.054394 0.408798 -0.359265 -0.652074 -0.444253 0.195412 0.566028 -0.759750 0.679542 -0.101354 -0.721845 -0.012275 -0.105354 -0.803927 -0.190055 0.030345 -0.467826 0.471995 0.540931 -0.501335 -0.809768 -0.404549 1.085320 -0.076386 1.062903 0.308279 -0.658494 1.405174 0.205891 -0.297268 0.828030 -0.649095 -0.400188 -0.850007 -0.127448 -0.518512 -0.004935 -0.557430 1.050502 0.156793 0.359074
understand 0.173698 0.726417 0.557365 -1.083289 0.121726 0.149761 -0.158642 0.914580 -0.035519 0.046579 -0.446882 0.446507 -0.921449 -0.411510 -0.282443 0.186623 -0.415743 0.315763 -0.510468 -0.528400 -0.380607 -0.201314 -0.533612 -0.475798 0.082964 0.057496 -0.006867 1.202047 -0.306369 -1.272579 0.114521 1.301320 -0.152819 0.732866 0.593790 0.137500 1.152409 -0.563449 -0.262295 0.359170 -0.530537 -0.221985 -0.280998 0.188403 0.364433 0.466771 -0.417961 -0.393580 -0.680407 -0.209938
company 0.188254 0.373522 1.041075 -0.050884 -0.377827 -0.752874 -0.420888 0.923166 0.414312 -0.450291 0.714879 1.026792 -0.274678 0.429000 0.671880 0.432956 -0.178640 0.151050 0.405888 -0.798647 0.284499 0.037930 -0.084384 1.236437 0.149141 -0.603040 0.191404 -0.752321 -0.570493 0.239402 0.135122 0.042722 0.044215 0.528224 -0.060226 -1.016159 1.224622 -1.580840 0.537642 0.649376 -1.301769 -0.130976 0.264257 0.016706 -0.161952 -0.724784 -0.734998 -0.957234 -0.605775 -0.684749
food -0.221105 0.725549 0.455148 0.637033 -0.977831 0.294240 -1.338768 -0.106299 0.830813 -0.344818 -0.410865 -0.311756 -0.341145 0.253867 0.214551 0.947439 -0.569421 -0.522155 0.320309 -0.797242 0.237053 -0.079462 0.749149 0.296518 -0.606431 0.900912 0.825324 0.703832 1.129940 0.687517 0.189345 0.146298 -0.353704 0.892603 0.244130 -0.451901 1.043885 -1.046358 -0.066712 0.932249 -1.146398 -0.140347 -1.064888 -0.954965 -0.674184 -1.536975 0.034144 -0.545022 -0.996495 0.475864
well -0.427958 1.019944 1.086904 -0.559480 -0.363529 -0.074662 -0.554785 0.231876 -0.665378 -0.014403 0.095508 -0.467158 -0.394528 -0.173125 0.324992 0.826431 0.406398 0.533294 -0.168632 -0.483295 0.858524 -0.364560 -0.898195 -0.015773 -0.067734 -0.427343 -0.514056 0.500511 0.308203 -1.198876 0.564729 0.432357 -0.387001 0.585550 0.871040 -0.199218 1.713667 -0.222278 0.247513 -0.001877 0.057841 -0.118512 0.114810 -0.109298 -0.168092 0.621973 -0.039586 -0.114168 -0.639581 -0.214379
please -0.763847 0.528560 1.007535 -0.344215 -0.381377 0.286093 -0.258303 0.254178 0.172774 -0.211808 -0.900041 0.208622 -1.219647 -0.548171 -0.090929 -0.803678 -0.904989 0.947878 -0.388633 -0.052636 -0.024371 -0.471576 0.073544 0.252039 0.035940 0.321322 0.195016 1.268963 -0.427946 -0.927320 0.482590 0.163686 -0.284276 0.169099 1.147725 -0.894449 0.618443 -0.069236 -0.474855 -0.297603 0.614259 -0.389697 -0.927025 -0.753801 -0.423237 0.574367 -0.429357 0.176673 -1.453232 -0.673822
year 0.802145 0.230796 -0.545573 -0.461540 0.399185 -0.130814 -0.108703 0.482483 0.463789 0.334419 1.794540 -0.211259 -0.738740 0.005784 -0.081439 0.414364 -0.854186 -1.314176 0.441986 0.001892 0.394158 0.326353 -0.736630 -0.167052 0.034489 -0.773255 0.432952 -0.700527 0.551171 -0.601492 0.254489 0.419505 0.684793 0.759183 0.070574 -0.209207 1.244782 0.108116 -0.947715 0.334081 -0.487692 0.548743 -1.588785 -0.439520 -0.624997 0.572752 -1.122269 0.147419 -0.840990 -0.730220
where 0.190123 0.586727 -0.382578 0.181088 -0.257717 0.405608 -0.553603 0.717577 0.156085 -0.104883 0.704153 -0.065126 -0.761660 0.018563 0.027018 -0.134661 -0.421592 0.240803 -0.132464 -0.583068 0.596371 -0.425389 -0.868990 -0.014457 -0.689123 -0.142265 0.744425 -0.387032 0.250676 -0.876062 0.370963 0.799782 0.774968 0.292979 0.074944 0.071322 0.810845 -1.048542 0.124436 0.436153 -0.657209 -0.476459 -0.552681 -0.258344 -0.181310 0.582791 -0.691922 0.160649 -0.169269 0.172524
poor 0.196731 0.483521 0.158386 0.044106 0.874337 -0.768428 -1.134332 1.016645 0.682206 -0.119034 -0.364132 0.434687 -1.007842 0.332738 -0.838817 -0.024224 -0.146371 0.609129 0.603151 -0.595449 1.215960 -0.349581 0.127148 -0.701280 -0.615181 -0.176054 0.301684 0.723522 0.193611 -0.624553 -0.356296 0.604119 0.655274 0.690891 0.795136 -0.030628 1.354066 0.494060 0.164003 0.216117 -0.801557 0.221832 -0.095611 0.212133 -0.039763 -0.033352 -0.336821 -0.013006 -0.407442 -0.066232
thing 0.356704 0.145960 0.052725 -0.924946 -1.016591 0.526638 -0.117871 1.160684 -0.603117 0.262818 0.390126 0.487401 -0.739470 -0.104839 -0.025897 0.428458 -0.653912 0.124316 -0.846216 -0.622146 0.381209 0.147164 -1.048031 -0.419991 0.125294 -0.231344 0.421837 0.536042 0.308703 -1.005523 0.366112 0.247366 -0.174832 0.692769 -0.037979 -0.191770 1.151927 -0.304760 -0.561628 1.156802 -0.755763 -0.332823 -1.046712 -0.437899 -0.204231 -0.226807 -0.597840 -0.743942 -0.344985 -0.277756
buy 0.452220 0.908378 0.521876 -0.003153 -1.528057 -0.683209 -0.663858 0.681255 0.807226 -0.055334 0.855764 0.054288 -0.419949 0.515440 0.219883 0.217694 -0.279935 -0.090785 -0.124288 -0.384546 0.917631 -0.402269 0.414390 0.727515 -0.763544 0.045688 0.274423 -0.194184 -0.458766 0.362529 -0.119856 0.842431 0.406055 0.687331 0.234251 -0.886857 1.307806 -0.650089 0.021647 0.510992 -1.408338 -0.023675 0.137593 -0.642151 -0.626916 -1.364352 -0.616492 -1.012925 -0.082553 0.168155
system 0.248606 0.452907 -0.530954 -0.140704 0.866867 0.518312 -0.794765 -0.986933 -0.148684 -0.136975 0.209986 -0.031375 -0.649901 -0.448648 -0.649154 -0.135498 -0.814941 0.765702 -0.273522 -0.746945 0.939428 -0.502027 -0.821537 -0.602408 -0.779787 -0.495077 1.424429 -0.227149 -0.518954 -0.678932 0.354659 0.420742 0.498343 0.495091 0.005066 -0.694314 1.766226 -0.232186 0.561896 -0.310641 -0.860374 -0.417094 0.139140 -0.138269 -0.541650 0.940822 0.267354 -0.981859 0.135264 -0.020993
work 0.086480 0.688652 0.624207 0.104122 0.471986 -0.574731 -0.963818 0.401426 -0.446913 -0.112621 -0.539588 0.493053 -0.890909 -0.352763 -0.200817 0.212374 0.033896 0.340771 0.046751 -0.653979 0.803224 -0.640553 -0.086774 0.807816 -0.761265 -0.259198 -0.439951 -0.579610 0.301261 -0.859709 1.229740 0.174401 0.635400 0.298309 0.943870 -0.206188 1.466715 0.056827 -0.007616 -0.205087 -0.766624 0.001907 -0.711469 -0.083895 -0.481718 0.390760 -0.463641 0.453193 -0.188047 -0.206102
his 1.550370 1.200670 0.662673 -0.517139 -0.364940 0.071612 -0.641992 0.342046 0.912959 -0.356435 0.205844 0.719449 0.189086 -0.234946 0.271265 0.331969 0.692542 0.330256 -0.178750 0.965620 0.102180 -0.114763 0.588433 0.923697 0.616486 -0.914446 0.692281 -0.183917 -0.050262 -0.991220 1.164342 1.486231 0.558663 -0.571475 0.663442 0.291035 1.102094 0.051455 -0.368300 0.462896 -0.131318 -0.207782 -0.218624 0.039215 -0.749580 -0.753499 -1.142766 0.191804 0.527196 0.776840
haryana -0.185888 -0.162570 -0.010548 0.319599 0.362709 0.041879 -0.957905 0.298303 0.538549 -0.268102 1.106683 -0.774331 -1.480185 0.869337 -0.218385 -0.290815 -0.412156 1.128889 0.403763 0.075367 0.916573 1.048515 -1.142406 -0.286941 -1.062384 0.700589 -0.422702 0.546448 0.220419 -1.286200 -0.143949 0.470494 0.680376 -0.300872 0.141291 -0.713902 0.738729 -0.811916 -0.263099 0.797909 -0.298435 0.494661 0.258399 -1.147799 -0.493753 0.073962 -0.158772 0.724140 -0.929419 0.075100
problem 0.531063 -0.030794 0.554660 -0.771689 0.467296 0.871285 -0.716199 -0.612063 -0.652257 -0.221924 0.078833 0.769655 -0.861741 0.598572 -0.102872 0.015756 -1.153007 0.363557 -0.167382 -0.002364 0.101326 0.099044 -1.042355 -0.144418 -0.217940 -0.799786 0.469398 1.722794 -0.160134 -0.169567 0.120778 0.814336 -0.611480 2.012213 0.002940 0.143916 0.512251 -1.496450 -0.108924 1.143321 -0.939275 -0.223336 0.420998 -0.138259 0.037526 0.001068 -0.639705 -0.209406 -0.732706 -0.289621
mandi 0.636853 0.475779 0.128303 0.162469 0.762596 0.281929 -0.717620 0.110994 0.651924 -0.255887 1.222108 0.261168 -0.484662 -0.291196 -0.428771 -0.708910 -0.003896 1.042088 -0.125143 -0.717437 0.621420 -0.877694 -0.639670 0.022824 -1.119997 -0.010326 1.577645 -0.473413 -0.959943 -0.686565 -0.061223 0.619717 1.174134 0.063863 -0.309844 -0.944521 1.158471 -0.503765 0.297792 -0.447346 -0.906316 -0.438158 0.838863 -0.548493 -0.925703 0.228049 -0.467972 -0.691412 0.255231 -0.020367
after 0.781357 0.131011 -0.039631 0.061544 0.116292 0.307495 0.215875 0.980169 0.398737 0.370759 1.159466 -0.204334 -0.342064 -0.295941 -0.249058 0.463597 -0.379353 -0.508243 -0.099326 0.111727 -0.048593 0.410847 0.076047 -0.162655 0.432221 -0.574518 1.156653 -0.400275 -0.170869 -0.882923 0.558695 1.230573 -0.119889 -0.111027 1.207324 -0.110253 0.992407 -0.027876 -0.264211 -0.052108 -0.346153 0.529265 -0.898446 0.089037 -0.841829 0.422960 -0.853771 0.529409 -0.473584 -0.906172
show 0.583223 0.336500 0.317754 -0.160346 -0.145426 0.429529 -0.139535 0.181270 -0.301335 -0.011768 -0.726596 -0.186737 -0.433774 0.295375 -0.824368 -0.487126 0.282238 0.866005 0.021472 -0.489989 0.311268 -0.528121 -0.010522 0.181564 0.461154 -0.016261 0.101472 0.341430 0.583121 -1.176311 1.493078 0.418543 -0.209729 0.670243 0.503688 0.273193 0.197180 -0.346242 -1.459213 1.376810 -0.124785 -0.377197 -0.436302 -0.692776 -0.142913 0.097560 -1.093383 0.227382 -0.673680 0.865194
me 0.342181 0.511636 0.630714 -0.040238 0.559625 0.728224 -0.074811 0.398654 0.416169 -0.345881 0.369943 1.246347 -1.507021 -0.312377 0.235723 -0.667628 -0.535512 1.003277 -0.618314 -0.439052 -0.978055 0.012949 -1.164808 -0.236630 -0.251578 0.127689 0.237686 0.900205 -0.653564 -0.482718 0.464862 0.210875 0.912761 -0.151906 0.744128 -0.629700 -0.000657 -0.347150 0.012433 -0.079135 0.477689 0.285655 0.363369 -0.359526 -0.428315 0.304978 -0.886976 -1.256156 -0.646633 -0.723041
way -0.036076 0.180369 0.680549 -0.525039 -0.170861 0.356109 -0.576478 0.232161 -0.530168 -0.032612 0.414579 0.261849 -1.048313 -0.798022 -0.206130 0.072467 -0.257662 0.208231 0.370277 -0.430069 0.867946 -0.240729 -0.475082 0.142315 -0.315077 -0.586162 1.018698 -0.244324 0.344383 -1.053024 0.019325 -0.119338 -0.211072 0.386130 0.341176 -0.085116 0.826444 -0.239929 -0.695648 0.986665 -0.398171 -0.350902 -0.718789 -0.174505 0.035855 -0.001457 -0.516711 -0.408427 -0.565554 -0.196905
much -0.218444 0.815754 0.649983 0.830567 0.121017 0.418218 -0.404493 0.921874 0.143531 0.210788 -0.418539 -0.967887 -0.182542 0.350531 0.474999 1.005761 0.375966 0.488754 0.015378 -0.925512 0.405312 -0.708783 -0.772831 -0.196872 -0.109778 0.318497 -0.326407 0.894849 0.345727 -0.783504 0.663359 0.078328 -0.823154 1.015866 0.608150 -0.731586 1.597394 0.150315 0.007767 0.131429 -0.414958 0.153913 -0.894416 -0.788432 -1.121071 -0.299220 -0.338318 0.034039 -0.333996 0.090259
private 0.042215 0.594261 0.837765 0.107328 -0.254044 -0.530308 -0.520791 0.365566 -0.160046 -0.269329 1.099332 1.167570 -0.659009 -0.047317 0.438528 -0.089075 -0.413086 0.183012 0.108435 -1.082794 0.111531 -0.410358 -0.507998 0.746074 0.152652 -0.802125 1.055547 -0.774467 -0.703806 0.238244 -0.086113 -0.001439 0.201484 0.691479 -0.575455 -1.383566 1.482814 -1.516224 0.744659 0.447223 -1.010099 0.026812 0.146855 0.049007 -0.416057 -0.228830 -0.413081 -1.035431 0.056125 -0.830019
help -0.140186 0.567134 1.121151 0.079776 -0.388597 -0.277961 -0.814320 0.015018 0.228002 -0.171076 -0.615574 0.314542 -0.880204 -0.116143 -0.196583 -0.195287 -1.112922 0.944405 0.545119 -0.500651 0.410173 -0.024516 0.263111 0.143899 0.036596 -0.455946 0.633624 0.926884 -0.729745 -0.344843 0.254365 0.355137 -0.010506 1.432265 0.549394 -0.423073 0.734975 -0.405030 0.151372 0.805599 -0.131573 0.057078 -0.357008 0.084481 0.262701 -0.021713 0.079694 -0.762314 -1.473303 -0.149557
2 0.234205 0.225354 -0.325893 -0.619161 -0.013571 -0.101767 0.207498 0.410517 1.504622 0.507300 1.506144 -0.399604 -0.421785 0.020585 0.019887 -0.210721 -0.248971 -0.125010 0.610885 -0.130640 0.443219 0.638325 -0.854974 0.380727 -0.071844 -0.525527 -0.110366 -0.396222 -0.122962 -0.510033 0.022002 0.733820 1.104214 0.599114 -0.068193 -0.669863 0.449239 -0.402106 -0.734495 0.184268 -0.180581 0.372479 -0.625413 -0.735034 -0.509757 0.667406 -1.230174 -0.437156 -1.187091 -0.243119
medium 0.780036 0.111621 0.239895 -0.219561 -1.649999 -0.640709 -0.096706 -0.111253 0.630709 -1.038531 -1.209461 0.068737 -0.298558 -0.405197 -0.946741 -0.753722 -0.054085 1.214055 0.775917 -0.714129 -0.543140 -1.217643 0.001158 -0.423858 0.502118 0.061012 -0.756829 0.253408 0.131534 -0.922870 1.338067 0.413966 -0.405063 0.150175 -0.054537 -0.415079 0.177780 -0.323452 -0.730784 1.688837 -0.241156 0.101873 0.127788 -0.501378 0.031055 -0.205575 -1.161091 0.144978 -0.548853 0.150024
every 0.552968 0.271244 -0.817824 -0.495128 -0.688012 -0.398313 -0.727615 0.298136 0.982164 -0.053122 0.554723 0.570947 -1.436563 -0.723012 0.484782 0.588253 -0.420351 -0.530259 -0.557977 0.511289 -0.070740 -0.039472 -0.419530 -0.280348 -0.479651 -0.140538 0.084324 -0.029138 0.582000 -0.286790 -0.047231 0.500470 -0.069718 0.924465 0.235498 -0.439781 0.746095 -0.359107 -0.618184 0.815508 -0.726557 -0.510613 -1.200605 0.004696 0.047342 0.069318 -1.152577 0.274970 -0.078661 -0.242980
3 0.393568 0.122248 -0.308673 -0.729603 -0.213147 -0.337992 0.349084 0.217923 1.691159 0.397456 0.839110 -0.382607 -0.041430 -0.825585 -0.513091 0.139268 -0.421206 -0.280852 0.319866 -0.436901 0.191192 1.169639 -0.610288 -0.230755 0.661360 -0.500690 0.113498 -0.408719 -0.309012 -0.572280 0.153686 0.764626 0.972454 0.286148 0.375120 -0.662465 0.931601 -0.089262 -0.224912 -0.043199 0.160408 0.462336 -0.892967 -0.542735 0.107539 0.622392 -0.527286 -0.474310 -1.056853 -0.328014
benefit -0.041797 0.072555 0.759465 -0.271887 0.476627 0.110703 0.014342 0.436122 0.929896 0.287040 0.398400 0.040522 0.056191 0.117998 -0.141707 0.180420 0.298024 1.207447 0.377839 -0.424585 0.806605 0.557493 0.022344 -0.138805 0.032069 -0.136518 0.658439 0.232338 -0.702592 -0.929252 -0.112022 -0.164871 0.584233 0.947593 0.177032 -0.287011 1.627747 -0.877321 0.256593 0.267609 -1.019172 0.266146 0.140401 0.132514 -0.006310 -0.183940 -0.459419 -0.296686 -1.134787 -0.486372
back 0.662401 0.367633 0.812544 -0.027433 -0.655088 -0.170298 -0.150648 -0.399235 0.285717 -0.101006 0.951955 0.367360 0.013674 -0.055508 0.086219 0.368790 -0.558738 -0.579258 0.141963 0.238209 0.386487 0.188160 -0.385708 -0.316835 0.552863 -0.756094 1.125483 -0.610114 -0.266112 -1.321797 0.902483 -0.242638 0.760263 -0.510320 1.569096 0.083706 1.841479 -0.183368 -0.188265 0.141444 0.202937 0.506685 -1.251049 -0.075288 0.579569 -0.173139 -0.282229 0.796405 -0.624029 -0.249796
still 0.824385 0.383893 0.401992 -0.094508 -0.221031 -0.966116 -1.162910 0.658264 0.157621 0.014956 -0.099281 0.561565 -0.217042 -0.284049 -1.209745 -0.257899 -0.698148 -0.418898 -0.524558 0.296469 0.529139 -0.728040 -0.500157 -0.058824 -0.596365 0.262083 0.656743 0.278884 -0.057210 -1.243528 -0.175629 0.847167 0.408807 0.191588 0.074772 0.428493 0.932124 -0.160032 0.347244 -0.185881 -0.479657 0.190493 -0.541191 -0.500182 -0.351076 0.388317 -0.325613 -0.114736 -0.357562 -0.186623
agriculture -0.001193 0.468943 0.443532 0.071269 -0.018434 0.336171 -0.415601 -0.300426 0.095883 -0.706232 -0.005861 1.001736 -0.194952 -0.366460 -0.505255 0.318663 -0.175601 -0.142622 -0.238905 -0.803443 0.532100 -0.336177 -0.996941 -0.173811 -0.079562 -0.342293 0.182617 -0.037058 0.579129 -0.017728 -0.045225 0.594468 1.062812 0.084007 -0.175586 -0.722004 2.033212 -0.736495 0.770999 0.551581 -0.447586 0.334247 -1.090500 -0.227007 -0.542965 0.141386 0.422757 -0.073856 0.058965 0.081631
reform -0.033224 -0.142065 0.354875 -1.071346 0.230217 0.354746 -0.469354 -0.517333 0.388463 0.030121 -0.054827 0.320783 -0.462048 -0.673354 -0.454601 0.209271 -1.294660 -0.086277 0.181474 -0.607712 -0.045592 0.116693 -1.516559 -0.600532 0.391450 -0.718553 0.651537 0.031662 0.298610 -0.580740 0.190244 -0.360413 0.315845 0.289842 0.109655 -0.458770 2.275060 -0.268165 0.287105 0.233251 -0.327474 0.690048 -0.746413 0.427000 -0.206048 -0.181871 0.830019 0.087233 -0.450094 -0.307180
same 0.906433 0.304939 0.137360 -0.638475 -0.494098 0.775312 -0.378092 0.407540 -0.294866 0.429993 0.725350 0.504175 -0.697972 0.063735 -0.250326 0.312132 -1.227395 -0.017012 0.026314 0.215357 0.507789 -0.181537 -0.095218 -0.204948 -0.094698 -0.535986 1.119687 0.572025 0.439366 0.115179 0.362231 0.446005 -0.189596 0.419277 0.041194 -0.276946 1.128168 -0.349464 -0.577604 0.301370 -0.580755 -0.218397 -0.242204 0.139319 -0.364275 0.097884 -0.378499 -0.349084 -0.339049 -0.103310
party 1.408793 -0.113244 -0.369267 -0.314363 0.039105 0.647781 -0.891921 0.478928 0.829483 -0.357311 0.558188 0.564060 -0.540076 -0.266651 -0.242909 -0.211674 -0.463620 0.991076 0.678968 0.671510 -1.076309 -0.640327 -0.368486 -0.434214 0.204914 -0.367870 0.821878 0.401524 0.031082 -0.711569 0.310335 -0.319869 -0.608903 -0.402601 -0.327949 -1.012407 1.036247 -0.362262 -0.518371 1.188411 -0.353741 -1.348149 0.699662 0.775891 -0.143559 0.763594 -0.600151 0.582652 -0.548397 -0.242490
pay 0.376630 0.222985 0.887938 -0.249175 -0.300536 -0.584971 -0.173361 0.196954 0.948373 -0.142302 0.502831 0.156065 -0.106923 -0.507447 0.272406 0.304604 -0.033433 -0.385011 0.813706 -0.436053 0.420843 -1.616716 0.302423 0.048160 -0.705823 0.826317 0.803288 -0.530444 0.114147 -0.540119 -0.345717 0.188256 0.678414 0.246608 -0.108625 -0.172781 1.301769 0.452085 -0.623754 -0.504078 -0.726032 -0.139698 0.493702 -0.041221 -0.609245 -0.536957 -0.957600 0.335131 -0.983815 -1.006676
most -0.300616 -0.350338 -0.045435 -0.739621 -0.589553 0.195384 -0.276126 0.939087 0.322114 0.015987 -0.462965 -0.087489 -0.315803 0.203555 0.176729 0.305157 -0.028987 0.583591 0.352634 -0.250606 1.504101 -0.010377 -0.515171 -0.509652 0.021387 0.179295 -0.189376 0.523392 0.208067 -0.886175 -0.451705 0.635324 0.301261 0.352563 -0.133853 -0.529139 1.197861 0.285274 -0.430842 0.738604 -0.904141 -0.597632 -0.829440 0.033087 -0.435382 0.523207 -0.009154 0.257037 -0.123446 -0.227447
win 0.596654 0.045270 0.488968 0.829868 1.240235 -0.448748 -0.953431 0.485770 -0.133454 0.393916 -0.091978 0.444916 -0.576509 0.365475 -0.464289 0.004200 -0.250050 0.938204 0.430879 -0.035500 -0.064763 0.840240 0.681172 -0.483500 -0.478319 0.145545 0.887147 -0.831484 0.056213 -1.167143 0.527726 -0.305461 -0.608913 0.923129 1.607947 0.811812 0.513087 -0.240675 0.042993 1.610255 -0.013363 0.177294 0.069073 0.531815 0.297887 0.902114 -1.188712 -0.189898 -0.427848 -0.362306
contract 0.105131 0.332523 0.929338 -0.583352 0.130697 -0.078346 -0.028115 -0.092468 -0.125207 0.338524 0.897263 0.623696 -0.368550 -0.040065 0.528667 0.788004 0.192827 0.237503 0.354680 -0.764986 -0.639647 0.167259 -0.724597 0.715645 0.086155 -0.966556 0.150178 -0.345007 0.080901 0.187719 0.571338 0.922144 0.751414 0.404005 -0.369163 -1.061056 0.818421 -1.877868 0.717851 -0.948927 -0.182947 0.070043 -0.283610 -0.115993 0.453539 0.205217 -0.732300 -0.755808 -1.080231 -0.622692
land 0.205692 -0.171419 0.994644 -0.349267 0.416482 -0.831492 -0.150027 0.044990 1.277569 -0.156204 0.226713 0.114159 0.168171 1.030623 0.605252 0.422527 -0.029324 0.262513 0.840075 -0.333819 1.040341 0.627855 -0.422570 1.029024 -0.027940 -0.645161 -0.094409 -0.610420 -0.175912 -0.332535 0.354365 1.299575 0.968949 0.162621 -0.460829 -0.907875 1.458708 -0.395340 0.187283 -0.531763 -0.515440 0.136201 -1.072284 -0.220395 -0.263878 -0.187992 -0.064588 0.225104 0.325586 0.607107
1 0.714147 0.281928 -0.519259 -0.305820 0.232260 -0.351785 0.645859 0.434119 1.788710 0.341666 1.283607 0.054001 -0.449981 -0.100836 0.159097 -0.199350 -0.175918 -0.427720 0.458728 -0.359301 0.252312 0.140616 -0.797298 0.233101 -0.141926 0.103844 -0.044312 -0.515551 -0.123164 -0.304924 0.131900 0.968801 0.908870 0.564471 -0.247510 -0.391765 0.035162 -0.445448 -0.671239 -0.016653 0.090108 -0.049587 -0.522031 -0.968669 -0.384035 0.535646 -1.425814 -0.421796 -0.927590 -0.304255
kisan 1.737549 -0.247782 0.502716 0.191123 0.656246 0.268140 -1.113948 -0.148567 1.095311 -0.466615 -0.574265 0.764502 -1.269197 -0.559159 -0.436171 -0.243100 -0.506256 -0.728905 0.098437 0.488489 -0.455550 -0.073677 -1.004568 -0.012256 -0.120186 0.697769 0.025890 0.448529 -0.382047 -0.619254 0.623543 -0.025683 0.086903 1.541531 1.822883 -0.624117 -0.463282 -0.430773 0.103671 0.105639 0.006868 0.596716 1.459315 -0.565650 0.141362 -0.697441 0.104438 0.327666 -0.502683 -0.388101
happen 0.412464 -0.089904 0.006189 -0.185335 -0.665114 0.455859 -0.084831 0.865334 -0.641130 0.103247 1.030068 0.420925 -0.632799 0.731717 -0.804315 0.602130 -0.365665 -0.481036 0.217146 -0.278018 -0.231851 0.019465 -0.778252 -0.177460 -0.341474 0.087045 1.005464 -0.203550 0.197799 -0.715689 0.718936 1.272408 -0.270869 0.083260 0.372812 0.035480 0.811058 -1.389584 -0.229110 0.899770 -0.486958 0.255900 -0.310731 -0.384135 -0.077398 -0.128784 -0.363036 -0.402570 -0.479457 -0.336345
day 1.194234 -0.136042 -0.581383 0.042443 -0.379900 -0.221705 -0.490068 1.532957 0.407778 -0.144035 -0.034607 0.638131 -0.621631 -0.815570 -1.245523 0.525949 -0.431842 -0.816909 0.461379 0.300882 0.699661 0.855046 0.674792 -0.215244 -0.169061 -0.491010 -0.253742 -0.163325 0.722970 -0.390901 0.668005 0.156048 0.595366 0.298909 0.722367 0.292663 0.727016 0.488684 -0.644980 0.550796 -0.629246 0.004253 -1.607426 -0.695257 -0.013141 0.043029 -0.942545 0.294905 -0.747793 -0.633176
over 0.426360 -0.469172 -0.175585 1.245504 0.044717 -0.086432 0.005719 0.437158 0.285551 -0.990797 0.202183 0.456697 0.455585 0.461458 0.048764 0.444831 -0.165178 -0.267998 0.513287 -0.373101 0.626867 0.134501 -0.168732 0.401893 0.448464 -0.400491 0.962374 -0.505316 0.451348 -0.976193 0.253276 1.124151 -0.105341 0.518354 0.387279 -0.184521 1.215823 -0.164332 -0.399300 1.145125 -0.322538 0.333617 -0.640733 -0.190041 -0.361573 -0.288079 -0.547465 0.713940 -0.430628 -0.596294
such -0.266097 -0.100428 0.009404 0.321792 -0.580334 -0.086075 -0.609826 0.051084 -0.140136 -0.096058 -0.070986 0.027658 -0.426529 -1.012302 0.073934 0.732056 -0.454083 0.880681 -0.250059 -0.484748 0.125097 -0.212412 -0.500993 0.127964 0.201592 -0.208752 0.663530 0.293825 0.338488 -0.480439 1.037674 0.336470 -0.044186 0.894165 -0.132735 -0.119997 0.461413 -0.379604 0.203012 0.439879 -0.434391 -0.362984 -0.588397 -0.037935 0.321086 -0.139202 -0.852723 0.426335 -0.014246 -0.463519
mandis -0.107629 -0.073020 0.169051 0.057445 -0.019454 -0.141367 -1.193640 0.185218 -0.061598 0.225299 1.243326 -0.337987 0.079381 -0.235309 -0.186895 -0.781143 0.222553 0.479685 -0.418298 -0.771406 0.574544 -0.308277 -0.398464 0.290260 -0.669880 -0.233119 1.942977 -0.814497 -0.679701 -1.283381 -0.493196 0.866379 0.670989 0.402083 -0.196803 -0.682388 0.951632 -0.732830 0.171700 -0.307027 -0.746705 -0.006929 0.370404 -0.564952 -0.501673 0.071879 0.091323 -0.332233 -0.362901 -0.067462
act 0.344847 -0.274729 -0.391008 -0.404702 -0.235489 0.532289 -0.221200 -0.601025 0.819021 0.754334 0.443611 -0.515083 0.326148 -1.382881 -0.452026 0.547938 0.520673 0.300567 -0.678334 -0.583478 -0.202613 0.743381 -1.558783 -0.028970 1.076130 -0.438768 0.612524 -0.400894 -0.262899 -0.392255 0.259138 1.072840 0.299253 0.265686 0.163685 -0.761992 1.031675 -0.346791 0.406891 0.418301 -0.307959 -0.331681 -0.260844 -0.390311 -0.485431 -0.107946 0.052689 -0.944453 -1.306361 0.228261
issue -0.118808 -0.225437 -0.007563 -0.543242 -0.042421 0.991133 -0.242264 -0.264703 -0.006076 -0.129367 -0.829247 0.232369 -0.068863 -0.166583 -0.395375 0.221788 -0.105269 1.063293 0.236681 0.038835 0.074298 -0.395726 -1.010084 -0.526754 0.253615 -0.527390 0.335183 0.879382 0.421520 -0.707240 0.278557 1.014031 0.059470 0.830829 -0.202071 -0.026723 0.669957 -0.970392 -0.095973 0.436264 -0.494602 -0.021070 -0.197918 -0.462783 0.148297 0.368000 -1.084945 0.016430 -0.553042 -0.257496
change -0.060369 0.255088 0.070609 -0.784056 -0.160079 0.309784 -0.870235 -0.266174 -0.223539 0.077006 -0.229819 0.681195 -0.916318 -0.336402 -0.271970 1.415561 -1.796669 -0.157021 -0.289527 0.287929 -0.011450 -0.080117 -0.828650 0.270135 -0.233473 -0.523912 0.871963 0.446305 0.237057 -0.921974 0.588574 0.387929 -0.354638 -0.142823 0.239572 0.228457 1.377214 -0.336888 -0.455061 0.126343 -0.553567 0.172999 -0.745298 0.237654 -0.007649 0.471649 0.252957 -0.619336 0.010950 -0.244900
high 0.211716 0.483141 0.904504 0.264075 -0.385761 0.281248 -0.823411 0.047586 0.139680 0.395857 1.003590 0.008838 -0.020657 0.411850 0.371737 0.557826 0.789996 -0.147046 0.626467 -0.524078 1.130349 -1.165511 0.007969 -0.124839 -0.597190 0.272957 1.052096 0.480297 0.974130 0.303636 -0.429381 0.513365 0.132760 0.520717 0.002490 -0.929296 1.083052 -0.225345 -0.426378 -0.094924 -0.945589 0.142157 -0.113091 -0.436278 -1.033106 -0.076144 -0.707334 -0.167973 -0.219583 -0.631276
product 0.763386 0.905835 0.497839 -0.612068 -0.478227 0.728542 -1.426651 0.189968 0.775099 -0.414320 0.291710 0.044380 0.083879 -0.378622 0.092190 -0.066187 0.118023 -0.461862 -0.399563 -0.053447 0.367667 -0.173867 0.209328 0.880456 -0.442023 -0.795626 0.452016 0.088513 0.327129 0.115163 -0.278367 0.798101 0.879771 0.575780 -0.334882 -0.962914 1.258498 -0.741340 -0.056724 -0.191561 -1.459442 -0.064374 0.087091 -0.761636 -0.769860 -0.491191 -0.018028 -1.126900 -0.543855 0.181307
use 0.710569 0.208041 0.454693 0.061815 0.204359 -0.266663 -0.759292 0.153396 -0.169994 -0.519526 -0.256714 -0.049021 -0.835882 -0.804129 0.160841 -0.069036 -0.623975 0.012131 0.858896 0.060773 0.189030 -0.163435 -0.005968 0.508499 -0.159413 -0.205143 0.264353 -0.276286 -0.639622 -0.421610 0.601688 0.666589 0.113085 -0.370644 -0.349238 -0.509949 0.867943 -0.089232 -0.064289 0.431185 -1.090217 -0.732586 -0.331531 -0.296788 -0.235294 -0.264463 -0.654969 -0.266160 -0.209467 -0.158498
great 0.223447 0.424963 1.374977 0.420049 0.642148 0.364962 -0.129964 0.007827 -0.389643 -0.069620 -1.285365 0.868720 -0.214920 -0.156253 -0.048572 0.315972 0.241046 0.895437 0.247890 -0.361930 1.292512 -0.534297 -0.170858 0.564604 0.273782 -0.002418 0.140061 -0.081832 0.334665 -0.865935 1.696147 -0.326840 -0.423398 1.305777 0.222400 0.121414 0.879584 -0.195073 0.465617 0.855549 0.318059 0.322907 -0.358009 0.152079 -0.399418 0.502670 -0.749405 0.731926 0.124761 -0.430291
jai 1.525442 -0.289413 0.370417 0.937621 0.036086 0.822905 -0.793017 -0.426278 1.247867 -0.713575 -1.257459 0.848477 -0.200762 -0.230712 0.053710 0.434259 0.221926 -1.378948 0.686982 0.452189 0.080700 -0.429815 -0.347843 -0.200548 0.233195 1.382638 0.859929 -0.034030 1.187687 -1.135663 0.371753 -0.299233 -0.430657 1.321781 1.680295 -0.523374 -0.810319 -0.467929 0.326186 0.559997 1.380185 0.716210 0.455189 -0.443784 0.202981 0.022499 0.776601 0.677910 -0.428217 -0.125753
middle -0.391889 0.207871 0.192958 -0.673940 -0.012402 -0.800077 -0.324787 1.116414 0.505345 -0.058215 0.141032 0.407720 -0.552011 -0.029363 -0.405283 -0.120394 1.513026 1.149778 0.405680 -0.612596 1.432039 -1.020553 0.566219 -0.492549 -0.933277 0.132023 0.723655 0.178202 -0.423752 -0.672599 -0.992487 0.905083 -0.012369 0.387356 1.432184 -0.344486 1.164837 -0.332316 0.522041 -0.155700 -1.164984 -0.506076 0.651861 0.353930 0.193704 -0.647268 -0.602588 0.150740 0.420660 -0.299493
middleman 0.158436 -0.223462 0.053777 -0.100245 0.841961 -0.444121 -0.463704 0.751526 0.524740 0.141891 0.707374 -0.253536 -0.033577 -0.259165 -0.369564 -0.502400 0.372014 0.979319 0.814604 -0.698440 0.905833 0.103693 0.161075 -0.075010 -0.258541 -0.072244 1.211677 -0.296083 -1.094850 -0.801590 -0.466634 0.693342 0.279749 0.100435 0.153558 -0.602398 1.065198 -0.220592 0.508048 -0.000021 -0.576719 -0.652812 0.766699 -0.264116 0.023640 -0.484198 -0.392744 0.346248 -0.562663 -0.257094
let 0.226290 0.800345 0.243381 0.405618 -0.011579 0.375278 -0.123648 0.272164 0.244328 -0.236991 -0.109137 0.620596 -0.586151 0.485148 0.222829 -0.596176 -0.614675 0.358259 -0.294192 -0.241589 -0.203157 -0.018718 0.167667 -0.094202 0.234585 0.187792 0.599412 0.084071 -0.533801 -0.655063 0.707469 0.388202 0.492792 0.149936 1.112522 0.113446 1.163777 0.040585 -0.245653 0.557025 -0.166568 -0.708509 -0.358439 -0.048236 0.703422 -0.125435 -0.547783 -0.438470 -1.190680 -0.278424
money -0.467055 0.183441 0.827868 0.687621 0.174494 0.111716 -0.468328 0.493262 1.055032 -0.233100 0.010029 -0.264526 -0.220185 -0.043892 1.029923 0.757211 -0.522363 0.826486 0.905288 -0.558511 0.604219 -0.854952 0.346777 -0.133774 -0.481395 0.318879 1.164440 0.278960 -0.540433 -0.759250 -0.117264 -0.045094 0.463382 0.015885 0.170125 -0.726237 1.289605 0.826398 -0.491837 -0.199609 -0.633360 0.102653 -1.026821 -0.084360 -0.457061 -0.631709 -0.541387 0.141090 -0.355463 -0.697216
r 1.066442 0.673066 0.219853 -0.341622 0.029946 -0.552000 -0.291368 1.034268 0.472857 0.635636 0.859561 -0.210620 -0.623308 0.569654 -0.354654 0.114895 -0.810590 -0.989318 0.710188 -0.837927 0.734454 -0.331065 -0.604539 -0.040953 0.080608 0.814648 -0.681704 -0.120644 -0.530004 -0.741469 0.491479 -0.237627 1.055047 0.188165 0.879467 -0.543682 0.033782 0.360085 -1.308350 0.232751 -0.428355 -0.463580 0.293536 -1.041444 0.522244 0.722007 -0.819431 0.007159 -0.628016 -0.262694
corporates 0.183761 -0.040105 0.846635 0.133133 -0.170072 -0.975706 -0.706700 0.795243 0.294727 0.324814 0.495121 0.460326 0.188122 0.346134 0.227796 0.471256 0.042282 0.594458 0.513133 -0.738583 0.285187 0.384799 0.096243 0.358909 0.348721 -0.231208 1.031146 -0.420206 -0.637378 -0.520029 -0.005319 -0.219113 0.061527 0.717120 -0.006491 -0.530225 0.875440 -0.881519 0.095899 0.652270 -0.998673 -0.588268 0.063131 -0.079467 0.663568 -0.527662 -0.748349 -0.800174 -0.727081 -0.494546
lose 0.302356 0.205784 0.818605 0.086739 1.240628 -0.135680 -1.166128 0.798215 0.739247 0.322277 -0.044215 0.446824 0.046212 1.086993 0.277434 -0.297447 0.189787 0.647421 0.700272 0.923060 0.283774 0.370900 0.572413 0.207643 -0.326596 -0.121464 0.873822 -0.462764 0.043244 -0.723499 0.516493 1.210566 -0.596254 0.912816 0.805449 -0.043205 0.876325 -0.016218 -0.202815 0.890516 -0.045373 0.001568 -0.653454 0.310951 -0.522402 0.558835 -1.155890 0.836956 0.446288 0.320753
rich -0.023933 -0.221824 0.241959 -0.066792 0.703756 -0.418255 -0.811745 1.839381 1.383542 -0.293309 0.360197 0.393198 -0.608691 0.444211 -0.318835 0.212297 -0.164567 1.461191 1.012077 -0.527154 1.041457 0.375132 -0.097092 -0.296270 -0.444519 0.039798 0.044250 0.315602 -0.189295 -0.445064 -0.552755 0.033185 0.787635 0.418895 -0.195459 -0.507239 1.296111 0.525154 0.559968 0.364612 -0.696385 -0.394137 0.407003 0.740718 -0.183020 -0.190108 0.043890 0.720475 -0.389554 -0.468616
too -0.238209 0.277802 0.682878 0.651598 -0.389460 -0.348363 -0.686585 1.161234 -0.112462 0.247587 0.279242 -0.128132 -0.274920 -0.071062 -0.061837 0.726048 0.206488 0.547425 -0.141378 -0.415317 0.551778 -0.341499 -0.754709 -0.226371 -0.194793 0.135965 0.552904 0.517752 0.142779 -1.124136 -0.055887 0.481919 -0.394882 0.644036 0.485504 -0.657590 1.023044 0.266332 -0.420339 0.304968 -0.239460 0.510120 -0.443189 -0.510320 -0.773630 0.218363 -0.073512 -0.053071 0.132827 0.214323
try 0.251561 0.643065 0.609579 -0.261363 -1.009645 -0.458872 -0.501685 -0.146397 -0.271661 -0.292099 -0.275187 0.729011 -0.562242 -0.151026 -0.102742 -0.218775 -0.681898 0.907518 0.060261 0.267403 0.138080 -0.558957 -0.045165 -0.076605 0.300641 -0.716814 0.507825 0.635385 -0.659414 -1.178230 0.504306 0.408827 -0.138902 0.046878 0.207543 -0.161510 1.078132 -0.031361 -0.545026 0.926980 -0.184819 -0.107978 -0.255354 0.342922 0.226649 0.418092 -0.559576 -0.326844 -0.586569 -0.102788
farming -0.205304 0.011379 0.664577 -0.664461 0.285744 -0.013854 -0.400965 -0.295399 -0.226138 -0.224031 -0.305170 0.593499 -0.602693 0.127832 0.273661 0.929985 -0.775246 -0.038716 0.860136 -0.587035 0.214294 0.113816 -1.133001 0.604642 -0.034591 -0.834213 -0.352014 -0.695230 0.559839 0.284572 0.287628 0.927404 0.435144 0.129977 -0.621396 -1.024751 1.792939 -1.373820 0.884905 0.171240 -0.369404 0.343664 -1.118272 0.008911 0.030893 0.129600 0.305758 -0.508813 -0.440369 0.122041
never 0.199122 0.379967 1.035837 -0.026220 -0.692082 -0.710360 -0.056598 -0.147160 0.678448 0.505370 0.088739 0.778047 -0.323521 0.125668 -0.393410 -0.233080 -0.072704 0.641428 -0.498474 0.302747 -0.488501 -0.288495 0.114887 -0.726169 -0.195436 0.815724 1.118807 0.114993 -0.088960 -0.538778 0.837240 1.031552 -0.190067 -0.278241 0.497601 0.176115 1.380597 -0.609856 0.470949 0.300657 -0.360463 0.057065 -0.782762 0.542926 -0.083650 0.141749 -0.439767 -0.350606 -0.706319 0.072794
life 0.179287 0.787290 0.438296 -0.316331 1.017035 -0.150967 -1.332289 0.474657 0.742320 -0.211825 -0.510031 0.086188 -0.087337 0.415648 0.158873 0.248166 -0.199096 -0.254592 0.275190 0.388586 0.153155 -0.025507 0.688220 0.518873 -0.108763 -0.367791 0.614285 0.135933 0.747481 -1.167269 0.625462 1.339713 -0.480842 1.210545 1.101488 0.300267 0.997867 0.480164 -0.532278 0.077992 0.315535 0.348833 -0.733406 0.122224 0.021710 0.048764 -0.270955 0.735796 0.110018 0.027463
explain -0.500939 1.300478 0.747145 -0.895490 -0.611213 0.171463 0.267150 0.516583 -0.525576 0.690492 0.401646 -0.540290 -0.819030 -0.868773 -0.542990 0.230931 0.247641 1.122879 -1.039633 -0.772941 -0.199734 0.298746 -0.636346 -0.122148 0.160589 -0.383050 -0.727642 0.803390 -0.421133 -1.000857 0.848159 0.548293 -0.278186 0.920966 0.835545 0.037372 1.031375 -0.218009 -0.021783 -0.160028 0.632621 -0.136465 0.120103 -0.420974 0.044000 0.698599 -0.651619 -1.112882 -0.250470 -0.037691
really 0.610851 0.717621 1.029466 -0.729123 -0.172943 0.453121 -0.272908 0.993698 -0.671365 0.407233 -1.051543 -0.093719 -0.535918 -0.421054 -0.285195 0.331895 -0.650708 0.082626 -0.187858 0.015455 0.377584 -0.205861 -0.990487 -0.572241 -0.187000 0.340833 -0.811047 0.228916 -0.465105 -1.456930 1.066689 0.131829 -0.181370 0.844158 0.425295 0.387399 1.248647 0.581813 0.253199 0.624822 -0.474556 0.072627 -0.168480 -0.046530 -0.049254 0.596661 -0.160387 -0.587553 -0.356832 0.033545
stand 0.237403 0.244662 1.089226 -0.017145 -0.628058 0.185148 -0.401101 -0.086607 0.057829 -0.337359 -0.776468 0.716603 -0.819223 -0.420657 -0.195434 -0.020389 -0.946000 -0.715271 -0.000881 1.000396 1.224724 0.029583 -0.303525 0.127293 -0.040327 0.402287 0.611563 -0.330938 0.179537 -0.689306 -0.268811 0.029979 -0.308563 0.162268 1.315372 -0.067385 0.224288 -1.213745 0.365077 0.447058 -0.028859 -0.509923 -0.212181 -0.551012 1.177269 0.804813 -0.551808 0.862727 -0.690725 -0.200745
real 0.573272 -0.061290 0.333721 -0.456502 0.868866 1.237601 -0.181955 0.519910 -0.541694 -0.024137 -1.396093 0.425507 -0.730311 0.508826 -0.273380 -0.304704 -0.002267 0.477159 0.367837 -0.602069 0.365223 -0.488767 -0.763182 -0.316629 0.278835 0.266840 0.391994 0.623982 0.124368 -0.806202 0.608098 0.610420 -0.135381 0.923138 0.486490 0.293693 0.065058 -0.658130 -0.443297 0.881205 -0.903501 -0.217439 -0.059162 -0.351496 0.151741 -0.193922 -0.742533 0.238625 -0.239699 0.107887
talk -0.539221 0.655663 -0.060168 -1.025663 -0.274954 0.303912 0.486486 -0.068545 0.249846 0.556397 -0.253086 -0.381117 -0.336768 0.296159 0.093007 -0.409375 -0.205157 0.594588 -0.183397 0.064168 0.130336 -0.594607 -0.873565 -0.227481 0.340404 -0.109723 -0.015113 -0.065422 -0.052137 -0.679975 1.096994 0.931778 -0.176867 -0.116218 0.363425 0.538465 0.658828 -0.780080 -0.219238 0.503104 -0.285009 -0.164777 -0.704513 -0.434481 -0.031653 0.373849 -1.326479 0.062143 -0.568260 0.350907
bring -0.056774 0.536670 0.055685 -0.286027 -0.141606 0.351919 -0.172319 -0.856776 -0.057644 0.015643 -0.275343 0.270942 -0.128261 -0.543403 -0.391824 0.460276 -0.873268 0.223462 0.279091 -0.404354 0.535577 -0.136113 -0.563364 -0.425050 0.322184 -0.719106 1.153309 0.274523 -0.004837 -0.764210 0.490515 -0.351559 0.074651 -0.086674 0.118972 0.170963 1.783860 -0.450339 -0.011615 0.408016 -0.307793 0.330683 -1.252158 -0.230246 -0.010000 0.031315 -0.280699 0.159273 -0.604667 -0.149910
repeal 0.585268 -0.230707 0.216904 -0.645649 -0.154740 -0.387244 -0.456928 -0.382449 0.952904 0.695661 0.350522 0.012023 0.440673 -0.163889 -0.642208 0.535978 -0.268012 0.171464 -0.162970 0.459359 -0.504936 1.058864 -0.588773 -0.816852 0.970459 -0.220782 0.286592 0.268040 0.014616 -0.955484 1.435519 0.897627 0.054778 0.170059 0.877454 -0.360884 1.366209 0.094639 0.198225 -0.130397 0.067935 1.155717 -0.594271 0.265839 0.207555 -0.157013 -0.271967 -0.052676 -0.459453 -0.513931
could -0.062350 0.740829 0.390054 -0.069804 -0.352033 -0.409240 -0.547098 0.647713 -0.005537 0.342311 0.275522 -0.178048 0.169894 0.210741 -0.135773 0.172474 -0.730079 0.553356 -0.024855 -0.178244 0.011231 0.022142 -0.132912 0.288342 -0.089199 -0.352281 0.527005 0.453429 -0.230983 -0.782535 0.425046 0.436774 -0.120173 0.622776 -0.271877 0.265119 1.613462 -0.476345 0.228899 0.253097 -0.149873 -0.185611 -0.812561 0.048381 -0.417981 0.023598 -0.433368 -0.354794 -0.883627 0.169576
bad 0.918649 0.571070 -0.077190 -0.548831 0.160898 -0.051945 -0.976227 0.724116 -0.373959 0.381452 0.001569 0.393950 -0.078224 -0.288871 -0.461037 0.872271 0.277588 0.143439 -0.245954 -0.266175 0.418658 -0.087705 -0.771438 -0.274072 0.462310 -0.434666 -0.271103 0.031928 0.532199 -0.647708 1.517185 0.073585 -0.284624 0.508846 0.540619 -0.232249 0.888477 0.076629 -0.104174 1.214559 -0.724568 -0.366312 -0.623255 0.084474 -0.055579 0.627639 -0.695732 -1.258210 0.458879 -0.166521
free 0.704800 0.067200 0.181810 1.014339 0.190688 0.833857 -0.761080 -0.647653 0.115376 -0.333511 -0.263180 0.103934 -0.250758 -0.367471 0.627121 -1.261189 0.360666 0.338081 0.161179 -0.618989 -0.213697 -0.622283 -0.364223 -0.443187 -0.643798 0.885368 0.953696 -0.263322 0.005849 -0.282111 0.169088 0.816759 0.807964 -0.489852 -0.203408 -0.992033 0.711789 -0.198779 0.575274 0.169653 -0.532740 0.021098 -0.272792 -0.365018 -1.145705 -0.195349 0.054900 -0.711362 -1.301121 -0.145390
here 0.546142 0.287966 0.488702 -0.377818 -0.456641 0.307841 0.241275 0.856613 -0.386415 0.560707 0.580437 0.245005 -0.714270 -0.283017 -0.309717 -0.119917 -0.740134 0.172063 -0.636118 -0.443473 0.522471 -0.099556 -0.533602 -0.132495 0.119328 0.283852 0.801464 0.230215 -0.381708 -0.772037 0.265764 0.794612 -0.391414 0.348508 0.373564 -0.242981 0.581414 -0.312997 -0.406278 0.388347 -0.158550 -0.339235 -0.394617 -0.336249 -0.130298 0.120578 -0.550606 0.640428 0.245244 0.214613
own 0.815072 0.277656 0.836784 -0.373325 0.042219 -0.175371 -1.120775 0.331775 1.182544 -0.156822 -0.340699 0.114388 0.523354 0.511940 0.622143 0.669905 -0.118658 0.270317 0.307482 0.652445 0.847688 0.108119 0.055303 1.761857 -0.040614 -0.178121 -0.050799 -0.447213 -0.006433 -1.119698 0.860318 0.757764 0.669486 0.004763 -0.346684 -0.567397 1.248766 -0.415829 -0.435659 -0.113466 -0.544251 -0.737334 -0.429323 -0.402529 -0.204547 0.277149 -0.364086 0.705184 0.005322 0.543572
without -0.453929 0.399819 0.316346 -0.980562 -0.487211 0.649688 -0.407056 0.203310 0.908214 -0.434103 -0.043800 -0.252188 -0.518214 -0.972429 -0.375566 0.823886 -0.318029 -0.232628 0.133989 -0.577038 -0.346503 -1.077065 0.352946 -0.012201 -0.578311 -0.035346 1.651934 -0.137928 0.091164 -0.893875 0.344508 0.725595 -0.098431 0.355258 0.531028 0.197831 0.522669 -0.699610 -0.522054 -0.543118 -1.025833 -0.618535 -0.416536 0.092467 0.230499 0.329634 -0.144050 0.170447 -0.133029 -0.334609
before -0.276532 0.384743 0.369234 -0.221401 -0.556007 0.259663 -0.217304 0.661404 0.049388 0.568491 0.400547 -0.233482 -0.511209 -0.321814 0.207688 0.710428 -0.249177 0.203149 -0.153192 -0.089784 -0.087442 -0.318038 -0.337949 0.246100 0.356643 -0.615666 0.624093 -0.080575 0.250473 -0.364753 0.921962 0.962929 -0.215390 -0.808469 1.256841 -0.586157 0.818136 -0.047713 -0.412964 -0.838181 -0.120254 -0.432739 -1.021664 0.303563 -0.591615 0.855935 -0.377613 -0.022262 -1.040681 -0.422190
dont 0.059410 0.572961 1.051448 -0.322287 -0.249365 -0.116346 -0.301730 1.008752 -0.302525 -0.164218 -0.716152 0.115110 -0.824009 0.573393 0.337518 -0.348712 -1.123356 0.128697 -0.263809 -0.237226 -0.210218 -0.761585 -0.725873 -0.517669 -0.290512 0.615652 0.177213 0.402110 -0.822645 -0.917173 0.588572 0.631242 0.023119 0.038616 0.134162 -0.166586 1.099158 -0.317295 0.036754 0.118381 -0.722245 -0.307784 -0.850468 -0.166750 -0.190141 0.351059 -0.185069 0.066290 -1.104237 0.110999
always 0.548750 0.349087 0.903473 0.099239 -0.515557 -0.835689 -0.821290 0.615250 0.229045 0.298623 -0.502793 0.705281 -0.537420 -0.305801 -0.261057 -0.065716 -0.021351 0.427377 -0.240233 0.370711 0.885798 -0.351544 -0.399736 -0.028383 -0.369436 0.560873 0.466389 -0.102254 0.219342 -0.869570 -0.107260 -0.451355 -0.835831 -0.114093 0.124333 0.395808 0.663277 -0.679035 0.545805 1.104884 -0.457323 -0.451855 -0.417237 -0.042267 -0.079282 0.404665 -0.736061 -0.174786 -0.608000 0.259112
demand 0.311338 -0.309605 -0.215395 0.162922 -0.517020 0.169080 -1.008888 -0.461684 -0.048101 0.205619 -0.214005 0.259976 0.646268 0.157327 -0.219891 0.232872 -0.211876 -0.618898 -0.313544 0.821346 0.717263 0.086689 -0.712983 0.117212 0.161425 -0.248320 0.753844 0.924494 0.468216 -0.395730 -0.371498 0.671302 -0.111562 0.310028 -0.002399 -0.756768 1.062596 -0.548841 0.244507 -0.166542 -0.547520 0.391912 -0.684455 -1.178672 -0.256664 -0.300350 -0.214897 -0.391316 -1.388943 -0.543623
must -0.137118 0.368037 0.498756 -0.502691 -0.739511 -0.599568 -0.748042 -0.652964 0.525512 0.046460 -0.242006 0.503007 -0.443874 -0.413730 0.243947 -0.049344 -0.537894 -0.261911 -0.884124 0.278675 0.644378 -0.247480 -0.609245 -0.335617 0.221939 0.402193 0.483138 0.255776 -0.157363 -0.645606 -0.431474 0.596586 -0.204994 0.275712 0.819650 -0.268335 0.871152 -0.096832 0.154311 0.409130 -0.332096 -0.335738 0.059518 -0.162868 0.569253 -0.114620 -0.445770 0.239555 -0.408555 -0.789275
sir 0.142568 0.873213 1.020489 0.244379 -0.020602 0.542187 0.642901 0.181458 0.156856 0.432850 -0.064651 0.106000 -1.086974 -0.976268 -0.325921 0.312721 0.244047 0.085773 -0.946108 -0.435050 0.294277 -0.349468 -1.505829 0.211040 0.436295 0.304039 -0.956672 0.536779 -0.215605 -0.430229 1.307854 -0.404130 -0.189417 1.171479 1.050726 -0.406984 0.142247 0.039433 0.221729 -0.364928 0.954530 0.640001 -0.064890 -1.202470 -0.731996 -0.115954 -0.787059 -0.093344 -0.189705 -0.185510
ki 0.451952 0.041158 0.996619 -0.302010 0.896219 0.363865 -0.058986 -0.128172 0.685997 -0.117121 0.288731 1.079078 -0.972131 0.242973 -0.177791 -0.231590 0.057731 0.453978 0.678034 -0.657384 -1.022999 -0.517599 -1.287869 -0.498912 0.154725 -0.001292 -0.213301 0.180110 0.261899 0.388860 0.692917 -0.417897 0.488143 0.275295 0.367436 -1.054870 -1.304364 -0.575607 -0.344259 0.273566 0.505179 1.457370 0.905413 -0.309019 -0.513733 0.021920 -0.171817 -1.455704 0.214907 -0.175662
first 0.061814 0.069554 0.113459 -0.712185 -0.634626 0.582285 0.625979 0.347572 -0.093374 -0.220931 0.821513 0.317363 -0.492062 -0.079464 0.514138 -0.250804 -0.398989 -0.297603 -0.791986 0.128042 0.639965 0.386274 -0.493420 0.108562 0.520878 -0.310103 0.175996 -0.303500 -0.047894 -0.676767 0.198300 0.761353 0.127095 0.195667 0.550965 -0.599750 0.949190 -0.444223 -0.551449 0.472192 -0.254967 -0.351815 -0.754888 -0.230151 -0.214337 0.847291 -0.830908 0.261811 -0.579799 -0.751454
ji 0.707814 0.636748 0.991969 0.058232 -0.316535 0.124093 0.029922 -0.337001 0.135381 0.329932 -0.337168 1.107626 -0.593464 0.197793 -0.829497 -0.056377 -0.029597 0.286837 -0.474444 0.340750 0.477992 -0.274159 -0.944488 0.137240 1.200205 0.231275 -0.578085 0.314044 0.414342 0.062933 1.335177 -1.043400 -0.570246 -0.722940 1.587283 -0.251481 0.230630 -0.263051 0.194279 1.022259 0.861444 0.277041 0.438365 -0.222621 -0.446239 -0.162557 -0.519001 0.190259 0.103424 -0.175585
power -0.006533 0.086686 1.182028 0.847630 0.161407 0.062768 -0.956846 0.039135 0.202661 -0.008038 -0.359625 0.454683 -0.440256 1.085043 0.945129 0.079968 -0.123991 0.910454 1.202162 -0.189133 0.083556 -1.121791 0.026322 -0.354380 0.444460 0.018254 1.414015 0.476713 0.557426 -0.359061 0.508654 -0.010046 -0.707578 0.407624 0.470943 -1.184224 0.018950 -0.078121 -0.521120 0.855493 -0.085480 -0.019052 -0.668995 0.522153 -0.256879 0.065403 -0.415972 0.094502 -0.643203 -0.283642
political 0.658087 -0.623701 -0.292451 -0.191610 0.353718 0.880314 -1.238233 0.068364 0.367470 -0.404955 -0.603656 0.303866 -0.273745 -0.385495 0.045542 0.645736 -0.367060 1.583729 0.711124 0.986878 -1.043886 -0.377201 -0.440554 0.154309 -0.055307 -0.491216 0.654396 0.760602 0.001652 -1.089713 0.373478 0.404709 -0.408619 -0.510101 -0.515515 -0.253970 1.060581 -0.342132 -0.521836 0.760319 -0.594330 -0.780632 0.296099 0.549401 0.007527 -0.270575 -0.448391 1.139696 -0.126434 -0.234483
become 0.400685 -0.174537 -0.198402 0.646863 -0.066964 0.051923 -0.899295 1.361643 0.852042 0.000205 -0.594780 0.401589 0.160247 0.105150 0.064451 1.105527 -0.069783 0.701877 0.301507 -0.089235 0.713935 -0.426533 -0.560464 -0.375265 -0.165995 0.007828 0.067070 0.439083 1.003026 -0.320864 0.022603 0.519698 0.304498 0.298083 -0.250638 0.005490 1.191435 0.411599 1.207539 0.646596 -0.477539 -0.258159 -0.667444 0.821617 -0.563844 -0.119143 -0.324139 0.105646 -0.563970 -0.390436
point 0.011896 -0.358685 0.263536 -1.009086 -0.631763 0.725717 0.636062 0.431945 -0.120932 0.620310 0.664704 0.123460 -0.271044 -0.752601 0.143931 -0.790840 0.053281 0.775226 -0.347073 -0.465262 0.858367 -0.251989 -1.115118 0.044924 0.372765 -0.101379 0.667085 0.634404 -0.569008 -1.197165 0.040177 0.150232 -0.152984 0.595382 -0.600154 -0.503243 -0.145869 -0.499501 -1.243446 0.538643 -0.316956 -0.490165 -0.195446 -0.669584 -0.559883 0.529805 -1.361663 0.118038 -0.397961 -0.329867
